  0.10047487E-003 -0.18947474E+004  0.47678371E+003  0.42759671E+003
  0.10047487E-003 -0.18954005E+004  0.47718269E+003  0.42743274E+003
  0.10047487E-003 -0.18997765E+004  0.47835758E+003  0.42853039E+003
  0.10047487E-003 -0.18957338E+004  0.47798174E+003  0.42716348E+003
  0.10047487E-003 -0.18957767E+004  0.48779348E+003  0.43831058E+003
  0.10047487E-003 -0.18960098E+004  0.48790067E+003  0.43832171E+003
  0.10047487E-003 -0.18966293E+004  0.48796529E+003  0.43857887E+003
  0.10047487E-003 -0.18967945E+004  0.48857928E+003  0.43840875E+003
  0.10047487E-003 -0.18968847E+004  0.48864280E+003  0.43839038E+003
  0.10047487E-003 -0.18973213E+004  0.48814496E+003  0.43875505E+003
  0.10047487E-003 -0.18979244E+004  0.48703871E+003  0.43755428E+003
  0.10047487E-003 -0.18980250E+004  0.47821345E+003  0.42815046E+003
  0.10047487E-003 -0.18982328E+004  0.47762735E+003  0.42847981E+003
  0.10047487E-003 -0.18982851E+004  0.48692837E+003  0.43785521E+003
  0.10047487E-003 -0.18984806E+004  0.47804652E+003  0.42818961E+003
  0.10047487E-003 -0.18985765E+004  0.48796196E+003  0.43732016E+003
  0.10047487E-003 -0.18986481E+004  0.48701970E+003  0.43795013E+003
  0.10047487E-003 -0.18986570E+004  0.47870809E+003  0.42797823E+003
  0.10047487E-003 -0.18986728E+004  0.48795625E+003  0.43737610E+003
  0.10047487E-003 -0.18986733E+004  0.47780767E+003  0.42852193E+003
  0.10047487E-003 -0.18986775E+004  0.47839760E+003  0.42829499E+003
  0.10047487E-003 -0.18987211E+004  0.48727666E+003  0.43772412E+003
  0.10047487E-003 -0.18990205E+004  0.48723490E+003  0.43792270E+003
  0.10047487E-003 -0.18991155E+004  0.47790391E+003  0.42864802E+003
  0.10047487E-003 -0.18992098E+004  0.48810117E+003  0.43750657E+003
  0.10047487E-003 -0.18993089E+004  0.47858791E+003  0.42842287E+003
  0.10047487E-003 -0.18994620E+004  0.48730136E+003  0.43808400E+003
  0.10047487E-003 -0.18994887E+004  0.47809360E+003  0.42864726E+003
  0.10047487E-003 -0.18996436E+004  0.48795918E+003  0.43787783E+003
  0.10047487E-003 -0.18997245E+004  0.48836082E+003  0.43750768E+003
  0.10047487E-003 -0.18998444E+004  0.48800382E+003  0.43793642E+003
  0.10047487E-003 -0.18998827E+004  0.48680894E+003  0.43670763E+003
  0.10047487E-003 -0.18998965E+004  0.48817859E+003  0.43778415E+003
  0.10047487E-003 -0.18999657E+004  0.48805015E+003  0.43795197E+003
  0.10047487E-003 -0.19011257E+004  0.48677919E+003  0.43700869E+003
  0.10047487E-003 -0.19000573E+004  0.47889254E+003  0.42849641E+003
  0.10047487E-003 -0.19000785E+004  0.47832005E+003  0.42871846E+003
  0.10047487E-003 -0.18999461E+004  0.48680173E+003  0.43674777E+003
  0.10047487E-003 -0.19001436E+004  0.47910376E+003  0.42833107E+003
  0.10047487E-003 -0.18950924E+004  0.48813478E+003  0.43797765E+003
  0.10047487E-003 -0.19002773E+004  0.48839706E+003  0.43775790E+003
  0.10047487E-003 -0.19003147E+004  0.48734497E+003  0.43638372E+003
  0.10047487E-003 -0.19003276E+004  0.48635318E+003  0.43703119E+003
  0.10047487E-003 -0.19003491E+004  0.47922400E+003  0.42831509E+003
  0.10047487E-003 -0.19003569E+004  0.48630004E+003  0.43710066E+003
  0.10047487E-003 -0.19003776E+004  0.47846114E+003  0.42872865E+003
  0.10047487E-003 -0.19005283E+004  0.47840913E+003  0.42909226E+003
  0.10047487E-003 -0.19005962E+004  0.47839914E+003  0.42913610E+003
  0.10047487E-003 -0.19006155E+004  0.47829574E+003  0.42924792E+003
  0.10047487E-003 -0.19007016E+004  0.48667675E+003  0.43689398E+003
  0.10047487E-003 -0.18957630E+004  0.48830938E+003  0.43814807E+003
  0.10047487E-003 -0.19007390E+004  0.48709398E+003  0.43685954E+003
  0.10047487E-003 -0.19007647E+004  0.47938764E+003  0.42859798E+003
  0.10047487E-003 -0.19007815E+004  0.47906696E+003  0.42892312E+003
  0.10047487E-003 -0.19007888E+004  0.48676156E+003  0.43685243E+003
  0.10047487E-003 -0.19008090E+004  0.48706558E+003  0.43692471E+003
  0.10047487E-003 -0.19008290E+004  0.48652538E+003  0.43711461E+003
  0.10047487E-003 -0.19008575E+004  0.47865420E+003  0.42901472E+003
  0.10047487E-003 -0.19008577E+004  0.47836640E+003  0.42929926E+003
  0.10047487E-003 -0.19009199E+004  0.47947316E+003  0.42859119E+003
  0.10047487E-003 -0.19009552E+004  0.47907533E+003  0.42900179E+003
  0.10047487E-003 -0.19009954E+004  0.48715020E+003  0.43693475E+003
  0.10047487E-003 -0.19010120E+004  0.47915243E+003  0.42895403E+003
  0.10047487E-003 -0.19010258E+004  0.48721460E+003  0.43688469E+003
  0.10047487E-003 -0.19010268E+004  0.47880438E+003  0.42895096E+003
  0.10047487E-003 -0.19010836E+004  0.47931514E+003  0.42882914E+003
  0.10047487E-003 -0.19011141E+004  0.47941929E+003  0.42874156E+003
  0.10047487E-003 -0.19011281E+004  0.48655005E+003  0.43724413E+003
  0.10047487E-003 -0.19012292E+004  0.47846365E+003  0.42938902E+003
  0.10047487E-003 -0.19003017E+004  0.48839224E+003  0.43777551E+003
  0.10047487E-003 -0.19012727E+004  0.47880152E+003  0.42907683E+003
  0.10047487E-003 -0.19013179E+004  0.48715966E+003  0.43709194E+003
  0.10047487E-003 -0.19012719E+004  0.48740138E+003  0.43682130E+003
  0.10047487E-003 -0.19009597E+004  0.47885032E+003  0.42887199E+003
  0.10047487E-003 -0.18999103E+004  0.48847484E+003  0.43748726E+003
  0.10047487E-003 -0.18931130E+004  0.47677592E+003  0.42678699E+003
  0.10047487E-003 -0.19000953E+004  0.47926803E+003  0.42838122E+003
  0.10047487E-003 -0.19003161E+004  0.48630875E+003  0.43707064E+003
  0.10047487E-003 -0.19009758E+004  0.47847677E+003  0.42924930E+003
  0.10047487E-003 -0.19000721E+004  0.47913888E+003  0.42849718E+003
  0.10047487E-003 -0.19005155E+004  0.48633106E+003  0.43715102E+003
  0.10047487E-003 -0.18943519E+004  0.48858480E+003  0.43958311E+003
  0.10047487E-003 -0.19012806E+004  0.47944558E+003  0.42879886E+003
  0.10047487E-003 -0.18983147E+004  0.48713033E+003  0.43766310E+003
  0.10047487E-003 -0.19004284E+004  0.48699817E+003  0.43679670E+003
  0.10047487E-003 -0.18985548E+004  0.47852573E+003  0.42810712E+003
  0.10047487E-003 -0.18979297E+004  0.47776112E+003  0.42819610E+003
  0.10047487E-003 -0.19000483E+004  0.47833621E+003  0.42868742E+003
  0.10047487E-003 -0.18968884E+004  0.48890404E+003  0.43812269E+003
  0.10047487E-003 -0.18945710E+004  0.47749146E+003  0.42716228E+003
  0.10047487E-003 -0.19011344E+004  0.48744106E+003  0.43670964E+003
  0.10047487E-003 -0.18974825E+004  0.48901101E+003  0.43832289E+003
  0.10047487E-003 -0.19002556E+004  0.47827175E+003  0.42885476E+003
  0.10047487E-003 -0.18998578E+004  0.48815612E+003  0.43778706E+003
  0.10047487E-003 -0.18990189E+004  0.47891995E+003  0.42795007E+003
  0.10047487E-003 -0.18993938E+004  0.48830030E+003  0.43739786E+003
  0.10047487E-003 -0.18941496E+004  0.48880934E+003  0.43924347E+003
  0.10047487E-003 -0.19003904E+004  0.48848064E+003  0.43773092E+003
  0.10047487E-003 -0.19008955E+004  0.48712768E+003  0.43690607E+003
  0.10047487E-003 -0.19001625E+004  0.47905290E+003  0.42862729E+003
  0.10047487E-003 -0.18998814E+004  0.47826582E+003  0.42867347E+003
  0.10047487E-003 -0.18975566E+004  0.47835714E+003  0.42770433E+003
  0.10047487E-003 -0.19001182E+004  0.48761460E+003  0.43810344E+003
  0.10047487E-003 -0.18985351E+004  0.48707153E+003  0.43783810E+003
  0.10047487E-003 -0.19001637E+004  0.48694015E+003  0.43671898E+003
  0.10047487E-003 -0.19011992E+004  0.48653581E+003  0.43729545E+003
  0.10047487E-003 -0.18964780E+004  0.47802470E+003  0.42749319E+003
  0.10047487E-003 -0.19012554E+004  0.47934192E+003  0.42888867E+003
  0.10047487E-003 -0.18990957E+004  0.48754912E+003  0.43763904E+003
  0.10047487E-003 -0.19008387E+004  0.48722143E+003  0.43678094E+003
  0.10047487E-003 -0.19012508E+004  0.47855536E+003  0.42930917E+003
  0.10047487E-003 -0.19010878E+004  0.48669521E+003  0.43707493E+003
  0.10047487E-003 -0.19009856E+004  0.47946775E+003  0.42862938E+003
  0.10047487E-003 -0.19005401E+004  0.48702487E+003  0.43682720E+003
  0.10047487E-003 -0.19012676E+004  0.47957831E+003  0.42866129E+003
  0.10047487E-003 -0.18960323E+004  0.48851939E+003  0.43807212E+003
  0.10047487E-003 -0.18991427E+004  0.48819310E+003  0.43737731E+003
  0.10047487E-003 -0.18906085E+004  0.48992736E+003  0.43961700E+003
  0.10047487E-003 -0.19002902E+004  0.47820316E+003  0.42917671E+003
  0.10047487E-003 -0.19004146E+004  0.47828606E+003  0.42915698E+003
  0.10047487E-003 -0.19011051E+004  0.48649225E+003  0.43729125E+003
  0.10047487E-003 -0.18998843E+004  0.48820095E+003  0.43775487E+003
  0.10047487E-003 -0.18993327E+004  0.48795999E+003  0.43771536E+003
  0.10047487E-003 -0.18996889E+004  0.47876316E+003  0.42843990E+003
  0.10047487E-003 -0.18975377E+004  0.48670272E+003  0.43769835E+003
  0.10047487E-003 -0.18989967E+004  0.48714551E+003  0.43800212E+003
  0.10047487E-003 -0.19001387E+004  0.47841709E+003  0.42865273E+003
  0.10047487E-003 -0.19000617E+004  0.48685550E+003  0.43675268E+003
  0.10047487E-003 -0.18984014E+004  0.47768218E+003  0.42850996E+003
  0.10047487E-003 -0.19010036E+004  0.48706785E+003  0.43702307E+003
  0.10047487E-003 -0.19004812E+004  0.47825036E+003  0.42922560E+003
  0.10047487E-003 -0.19011909E+004  0.47872026E+003  0.42911624E+003
  0.10047487E-003 -0.19011869E+004  0.48757461E+003  0.43660040E+003
  0.10047487E-003 -0.18981259E+004  0.47856333E+003  0.42785557E+003
  0.10047487E-003 -0.19006563E+004  0.47939413E+003  0.42853735E+003
  0.10047487E-003 -0.18971131E+004  0.48802561E+003  0.43876949E+003
  0.10047487E-003 -0.18986851E+004  0.48707266E+003  0.43791497E+003
  0.10047487E-003 -0.19005169E+004  0.47850165E+003  0.42899510E+003
  0.10047487E-003 -0.19004977E+004  0.48655967E+003  0.43690814E+003
  0.10047487E-003 -0.18971898E+004  0.47751038E+003  0.42800368E+003
  0.10047487E-003 -0.19007324E+004  0.48740220E+003  0.43654138E+003
  0.10047487E-003 -0.19003563E+004  0.48721883E+003  0.43653406E+003
  0.10047487E-003 -0.18963358E+004  0.47706690E+003  0.42801475E+003
  0.10047487E-003 -0.19009377E+004  0.48659832E+003  0.43709626E+003
  0.10047487E-003 -0.19008606E+004  0.48730038E+003  0.43671165E+003
  0.10047487E-003 -0.18974818E+004  0.47816173E+003  0.42792992E+003
  0.10047487E-003 -0.19006912E+004  0.47837236E+003  0.42921007E+003
  0.10047487E-003 -0.19002017E+004  0.47852011E+003  0.42881913E+003
  0.10047487E-003 -0.19001767E+004  0.48640608E+003  0.43689907E+003
  0.10047487E-003 -0.18967559E+004  0.47729660E+003  0.42799792E+003
  0.10047487E-003 -0.18986572E+004  0.47876581E+003  0.42792133E+003
  0.10047487E-003 -0.19005681E+004  0.48722866E+003  0.43663359E+003
  0.10047487E-003 -0.19004795E+004  0.48719716E+003  0.43661991E+003
  0.10047487E-003 -0.19010230E+004  0.48753500E+003  0.43655609E+003
  0.10047487E-003 -0.19004609E+004  0.48670755E+003  0.43673798E+003
  0.10047487E-003 -0.19011276E+004  0.48725134E+003  0.43689983E+003
  0.10047487E-003 -0.19001830E+004  0.47910923E+003  0.42834537E+003
  0.10047487E-003 -0.19000384E+004  0.48758019E+003  0.43809726E+003
  0.10047487E-003 -0.19012595E+004  0.47927315E+003  0.42895862E+003
  0.10047487E-003 -0.19001801E+004  0.47834769E+003  0.42897875E+003
  0.10047487E-003 -0.19009195E+004  0.47883086E+003  0.42887112E+003
  0.10047487E-003 -0.19008157E+004  0.48666097E+003  0.43696911E+003
  0.10047487E-003 -0.19000970E+004  0.47916911E+003  0.42824322E+003
  0.10047487E-003 -0.19007565E+004  0.48707497E+003  0.43688799E+003
  0.10047487E-003 -0.19004677E+004  0.48632235E+003  0.43713519E+003
  0.10047487E-003 -0.18994237E+004  0.47788563E+003  0.42882018E+003
  0.10047487E-003 -0.18992647E+004  0.48815694E+003  0.43747784E+003
  0.10047487E-003 -0.19001599E+004  0.47884755E+003  0.42882882E+003
  0.10047487E-003 -0.19009705E+004  0.47867715E+003  0.42904857E+003
  0.10047487E-003 -0.19005982E+004  0.47839149E+003  0.42914463E+003
  0.10047487E-003 -0.18999968E+004  0.48639997E+003  0.43681223E+003
  0.10047487E-003 -0.18999363E+004  0.48828362E+003  0.43769703E+003
  0.10047487E-003 -0.18978461E+004  0.48777277E+003  0.43713456E+003
  0.10047487E-003 -0.19002955E+004  0.48634924E+003  0.43701863E+003
  0.10047487E-003 -0.18985184E+004  0.48791540E+003  0.43733775E+003
  0.10047487E-003 -0.19010623E+004  0.48707572E+003  0.43704544E+003
  0.10047487E-003 -0.18979231E+004  0.47817480E+003  0.42813769E+003
  0.10047487E-003 -0.18980793E+004  0.48716552E+003  0.43750460E+003
  0.10047487E-003 -0.19005529E+004  0.48651526E+003  0.43698208E+003
  0.10047487E-003 -0.19005268E+004  0.47933702E+003  0.42852897E+003
  0.10047487E-003 -0.18989718E+004  0.47821408E+003  0.42826975E+003
  0.10047487E-003 -0.19006092E+004  0.48704405E+003  0.43684339E+003
  0.10047487E-003 -0.19007585E+004  0.48656551E+003  0.43703710E+003
  0.10047487E-003 -0.19003557E+004  0.48636624E+003  0.43703240E+003
  0.10047487E-003 -0.19012665E+004  0.48721456E+003  0.43700925E+003
  0.10047487E-003 -0.18993132E+004  0.48802923E+003  0.43763413E+003
  0.10047487E-003 -0.18992624E+004  0.48809500E+003  0.43754024E+003
  0.10047487E-003 -0.19008518E+004  0.47902742E+003  0.42899733E+003
  0.10047487E-003 -0.18986872E+004  0.47880377E+003  0.42789886E+003
  0.10047487E-003 -0.18998132E+004  0.48812202E+003  0.43779891E+003
  0.10047487E-003 -0.19012260E+004  0.48679816E+003  0.43704116E+003
  0.10047487E-003 -0.18997886E+004  0.47876716E+003  0.42872244E+003
  0.10047487E-003 -0.18994912E+004  0.47835423E+003  0.42839099E+003
  0.10047487E-003 -0.18982838E+004  0.48725537E+003  0.43751862E+003
  0.10047487E-003 -0.19000550E+004  0.47892855E+003  0.42845970E+003
  0.10047487E-003 -0.19002901E+004  0.47918958E+003  0.42855618E+003
  0.10047487E-003 -0.19012433E+004  0.47884765E+003  0.42901652E+003
  0.10047487E-003 -0.19007343E+004  0.47844551E+003  0.42915937E+003
  0.10047487E-003 -0.19011118E+004  0.48687974E+003  0.43689873E+003
  0.10047487E-003 -0.18996585E+004  0.47871587E+003  0.42847135E+003
  0.10047487E-003 -0.19012924E+004  0.48759502E+003  0.43663412E+003
  0.10047487E-003 -0.19011301E+004  0.47948793E+003  0.42868174E+003
  0.10047487E-003 -0.19012828E+004  0.47948907E+003  0.42875701E+003
  0.10047487E-003 -0.18963038E+004  0.47784021E+003  0.42758816E+003
  0.10047487E-003 -0.19004526E+004  0.47848058E+003  0.42898376E+003
  0.10047487E-003 -0.18996858E+004  0.47905787E+003  0.42814744E+003
  0.10047487E-003 -0.19011794E+004  0.48733927E+003  0.43683686E+003
  0.10047487E-003 -0.19001258E+004  0.48760534E+003  0.43811689E+003
  0.10047487E-003 -0.19000810E+004  0.47880815E+003  0.42859155E+003
  0.10047487E-003 -0.18992101E+004  0.48787716E+003  0.43773663E+003
  0.10047487E-003 -0.19004614E+004  0.48654177E+003  0.43690766E+003
  0.10047487E-003 -0.18981192E+004  0.48770112E+003  0.43735011E+003
  0.10047487E-003 -0.18985966E+004  0.48745055E+003  0.43748077E+003
  0.10047487E-003 -0.19002452E+004  0.47919952E+003  0.42828732E+003
  0.10047487E-003 -0.19007424E+004  0.48661542E+003  0.43697778E+003
  0.10047487E-003 -0.18992831E+004  0.47878688E+003  0.42821354E+003
  0.10047487E-003 -0.18982341E+004  0.47800408E+003  0.42810831E+003
  0.10047487E-003 -0.19003791E+004  0.47849378E+003  0.42893392E+003
  0.10047487E-003 -0.18977249E+004  0.48677154E+003  0.43772500E+003
  0.10047487E-003 -0.18981500E+004  0.48691965E+003  0.43779387E+003
  0.10047487E-003 -0.18996354E+004  0.48828739E+003  0.43753670E+003
  0.10047487E-003 -0.19009790E+004  0.47836521E+003  0.42936114E+003
  0.10047487E-003 -0.18990485E+004  0.48746840E+003  0.43769740E+003
  0.10047487E-003 -0.19012846E+004  0.48712895E+003  0.43710605E+003
  0.10047487E-003 -0.19005942E+004  0.47829640E+003  0.42923664E+003
  0.10047487E-003 -0.18990076E+004  0.47847251E+003  0.42838612E+003
  0.10047487E-003 -0.19005486E+004  0.47926672E+003  0.42860930E+003
  0.10047487E-003 -0.19002758E+004  0.48722012E+003  0.43649107E+003
  0.10047487E-003 -0.18981784E+004  0.48761104E+003  0.43747336E+003
  0.10047487E-003 -0.19007778E+004  0.48737325E+003  0.43659438E+003
  0.10047487E-003 -0.19003242E+004  0.47917560E+003  0.42858704E+003
  0.10047487E-003 -0.18975713E+004  0.48748949E+003  0.43728243E+003
  0.10047487E-003 -0.18997116E+004  0.47839690E+003  0.42845908E+003
  0.10047487E-003 -0.19005812E+004  0.48796554E+003  0.43798371E+003
  0.10047487E-003 -0.19001475E+004  0.48854098E+003  0.43754269E+003
  0.10047487E-003 -0.18995414E+004  0.47803147E+003  0.42873500E+003
  0.10047487E-003 -0.19000710E+004  0.48743287E+003  0.43826553E+003
  0.10047487E-003 -0.19008236E+004  0.48718892E+003  0.43680631E+003
  0.10047487E-003 -0.18979731E+004  0.47837141E+003  0.42796862E+003
  0.10047487E-003 -0.18971482E+004  0.47766181E+003  0.42783333E+003
  0.10047487E-003 -0.18988610E+004  0.47814334E+003  0.42828423E+003
  0.10047487E-003 -0.19004933E+004  0.47926761E+003  0.42858075E+003
  0.10047487E-003 -0.18994308E+004  0.48749889E+003  0.43786485E+003
  0.10047487E-003 -0.18987129E+004  0.47806675E+003  0.42828579E+003
  0.10047487E-003 -0.18986427E+004  0.48787879E+003  0.43743994E+003
  0.10047487E-003 -0.18972882E+004  0.47803678E+003  0.42788638E+003
  0.10047487E-003 -0.19002380E+004  0.48653667E+003  0.43679733E+003
  0.10047487E-003 -0.18994776E+004  0.48807979E+003  0.43766773E+003
  0.10047487E-003 -0.18955744E+004  0.48787880E+003  0.43811668E+003
  0.10047487E-003 -0.18992515E+004  0.48825892E+003  0.43736632E+003
  0.10047487E-003 -0.19006394E+004  0.47903235E+003  0.42888619E+003
  0.10047487E-003 -0.18982131E+004  0.48710908E+003  0.43763211E+003
  0.10047487E-003 -0.19008051E+004  0.47947666E+003  0.42853030E+003
  0.10047487E-003 -0.18999563E+004  0.48832750E+003  0.43766240E+003
  0.10047487E-003 -0.19008048E+004  0.48679021E+003  0.43683144E+003
  0.10047487E-003 -0.18968197E+004  0.47718407E+003  0.42814098E+003
  0.10047487E-003 -0.19002336E+004  0.48731185E+003  0.43637560E+003
  0.10047487E-003 -0.19003361E+004  0.48847317E+003  0.43771038E+003
  0.10047487E-003 -0.19000551E+004  0.48841893E+003  0.43761989E+003
  0.10047487E-003 -0.18996998E+004  0.47831784E+003  0.42853128E+003
  0.10047487E-003 -0.18995645E+004  0.47871027E+003  0.42866654E+003
  0.10047487E-003 -0.18997149E+004  0.47881395E+003  0.42840273E+003
  0.10047487E-003 -0.19012747E+004  0.47949345E+003  0.42874867E+003
  0.10047487E-003 -0.19006806E+004  0.48641808E+003  0.43714746E+003
  0.10047487E-003 -0.18985406E+004  0.47769986E+003  0.42856208E+003
  0.10047487E-003 -0.18997819E+004  0.47908700E+003  0.42816670E+003
  0.10047487E-003 -0.19001754E+004  0.47846821E+003  0.42862057E+003
  0.10047487E-003 -0.18998217E+004  0.47820850E+003  0.42893703E+003
  0.10047487E-003 -0.18994798E+004  0.48791732E+003  0.43783564E+003
  0.10047487E-003 -0.18977226E+004  0.47843490E+003  0.42771062E+003
  0.10047487E-003 -0.18987109E+004  0.48745738E+003  0.43753318E+003
  0.10047487E-003 -0.19007578E+004  0.47940908E+003  0.42857335E+003
  0.10047487E-003 -0.19002788E+004  0.47853433E+003  0.42860697E+003
  0.10047487E-003 -0.19006142E+004  0.47920537E+003  0.42870273E+003
  0.10047487E-003 -0.19005331E+004  0.47840418E+003  0.42909954E+003
  0.10047487E-003 -0.18998601E+004  0.48618832E+003  0.43695784E+003
  0.10047487E-003 -0.18996200E+004  0.48800366E+003  0.43781993E+003
  0.10047487E-003 -0.19004050E+004  0.48644902E+003  0.43697328E+003
  0.10047487E-003 -0.19006630E+004  0.48666271E+003  0.43688839E+003
  0.10047487E-003 -0.18994079E+004  0.47855313E+003  0.42850671E+003
  0.10047487E-003 -0.19008529E+004  0.48722211E+003  0.43678758E+003
  0.10047487E-003 -0.18991028E+004  0.48759047E+003  0.43760023E+003
  0.10047487E-003 -0.18985741E+004  0.47800366E+003  0.42827872E+003
  0.10047487E-003 -0.19011195E+004  0.47941113E+003  0.42875229E+003
  0.10047487E-003 -0.19006064E+004  0.47900619E+003  0.42889554E+003
  0.10047487E-003 -0.18981753E+004  0.47827260E+003  0.42816726E+003
  0.10047487E-003 -0.19003272E+004  0.48734211E+003  0.43639311E+003
  0.10047487E-003 -0.19003472E+004  0.47889665E+003  0.42887402E+003
  0.10047487E-003 -0.19011307E+004  0.47944895E+003  0.42872056E+003
  0.10047487E-003 -0.19011082E+004  0.48656426E+003  0.43721930E+003
  0.10047487E-003 -0.19004441E+004  0.48634698E+003  0.43709777E+003
  0.10047487E-003 -0.19009742E+004  0.48708953E+003  0.43698576E+003
  0.10047487E-003 -0.18947791E+004  0.48896427E+003  0.43941358E+003
  0.10047487E-003 -0.18995426E+004  0.47823367E+003  0.42853580E+003
  0.10047487E-003 -0.18975993E+004  0.48742253E+003  0.43736571E+003
  0.10047487E-003 -0.19005189E+004  0.47899493E+003  0.42886288E+003
  0.10047487E-003 -0.19012062E+004  0.48648597E+003  0.43735000E+003
  0.10047487E-003 -0.18956172E+004  0.47707134E+003  0.42765110E+003
  0.10047487E-003 -0.18964638E+004  0.47736876E+003  0.42778061E+003
  0.10047487E-003 -0.19005147E+004  0.47873906E+003  0.42875935E+003
  0.10047487E-003 -0.19010559E+004  0.47949755E+003  0.42863512E+003
  0.10047487E-003 -0.18979530E+004  0.48853174E+003  0.43868587E+003
  0.10047487E-003 -0.18955711E+004  0.48763367E+003  0.43836812E+003
  0.10047487E-003 -0.19005344E+004  0.47826368E+003  0.42923905E+003
  0.10047487E-003 -0.18977720E+004  0.48662893E+003  0.43741713E+003
  0.10047487E-003 -0.18978350E+004  0.48727588E+003  0.43716131E+003
  0.10047487E-003 -0.18978595E+004  0.48684550E+003  0.43724110E+003
  0.10047487E-003 -0.18979065E+004  0.48680913E+003  0.43730258E+003
  0.10047487E-003 -0.18980168E+004  0.48667228E+003  0.43749946E+003
  0.10047487E-003 -0.18981087E+004  0.48664204E+003  0.43757795E+003
  0.10047487E-003 -0.18981770E+004  0.48670898E+003  0.43754485E+003
  0.10047487E-003 -0.18982000E+004  0.48708935E+003  0.43716804E+003
  0.10047487E-003 -0.18982286E+004  0.48687087E+003  0.43740611E+003
  0.10047487E-003 -0.18983190E+004  0.48739377E+003  0.43729128E+003
  0.10047487E-003 -0.18983898E+004  0.48705512E+003  0.43730120E+003
  0.10047487E-003 -0.18983973E+004  0.48682050E+003  0.43754486E+003
  0.10047487E-003 -0.18979624E+004  0.48725839E+003  0.43724508E+003
  0.10047487E-003 -0.18980046E+004  0.48660203E+003  0.43756495E+003
  0.10047487E-003 -0.18977638E+004  0.48730358E+003  0.43709615E+003
  0.10047487E-003 -0.18981961E+004  0.48733264E+003  0.43729012E+003
  0.10047487E-003 -0.18979360E+004  0.48658909E+003  0.43754270E+003
  0.10047487E-003 -0.18982981E+004  0.48696502E+003  0.43734582E+003
  0.10047487E-003 -0.18980699E+004  0.48735143E+003  0.43720565E+003
  0.10047487E-003 -0.18982957E+004  0.48745254E+003  0.43721921E+003
  0.10047487E-003 -0.18980741E+004  0.48669091E+003  0.43751007E+003
  0.10047487E-003 -0.18980950E+004  0.48672584E+003  0.43748519E+003
  0.10047487E-003 -0.18981971E+004  0.48685329E+003  0.43740777E+003
  0.10047487E-003 -0.18982684E+004  0.48673951E+003  0.43756093E+003
  0.10047487E-003 -0.18983914E+004  0.48675183E+003  0.43761195E+003
  0.10047487E-003 -0.18978404E+004  0.48668359E+003  0.43739666E+003
  0.10047487E-003 -0.18978943E+004  0.48696467E+003  0.43713729E+003
  0.10047487E-003 -0.18979245E+004  0.48741183E+003  0.43706877E+003
  0.10047487E-003 -0.18981945E+004  0.48741365E+003  0.43720655E+003
  0.10047487E-003 -0.18983097E+004  0.48711727E+003  0.43719625E+003
  0.10047487E-003 -0.18982197E+004  0.48709063E+003  0.43717690E+003
  0.10047487E-003 -0.18978574E+004  0.48683286E+003  0.43725290E+003
  0.10047487E-003 -0.18980526E+004  0.48693327E+003  0.43725129E+003
  0.10047487E-003 -0.18978021E+004  0.48690693E+003  0.43714859E+003
  0.10047487E-003 -0.18980228E+004  0.48677364E+003  0.43739897E+003
  0.10047487E-003 -0.18981775E+004  0.48732503E+003  0.43728828E+003
  0.10047487E-003 -0.18979143E+004  0.48731669E+003  0.43716064E+003
  0.10047487E-003 -0.18983063E+004  0.48695444E+003  0.43736087E+003
  0.10047487E-003 -0.18983077E+004  0.48746323E+003  0.43721450E+003
  0.10047487E-003 -0.18977567E+004  0.48655070E+003  0.43748916E+003
  0.10047487E-003 -0.18980262E+004  0.48675327E+003  0.43742159E+003
  0.10047487E-003 -0.18979340E+004  0.48738895E+003  0.43709706E+003
  0.10047487E-003 -0.18980378E+004  0.48661675E+003  0.43756711E+003
