  0.69173336E-004 -0.18910311E+004  0.48370358E+003  0.44057517E+003
  0.69173336E-004 -0.19000657E+004  0.48187587E+003  0.43718309E+003
  0.69173336E-004 -0.18937971E+004  0.48313978E+003  0.43993145E+003
  0.69173336E-004 -0.18946578E+004  0.47403168E+003  0.43073597E+003
  0.69173336E-004 -0.18950586E+004  0.48386568E+003  0.43947033E+003
  0.69173336E-004 -0.18955491E+004  0.47487795E+003  0.42999511E+003
  0.69173336E-004 -0.18956237E+004  0.47464501E+003  0.43085122E+003
  0.69173336E-004 -0.18957239E+004  0.47464378E+003  0.43031388E+003
  0.69173336E-004 -0.18997126E+004  0.48285574E+003  0.43812873E+003
  0.69173336E-004 -0.18968480E+004  0.47466885E+003  0.43144023E+003
  0.69173336E-004 -0.18970637E+004  0.47498165E+003  0.43088781E+003
  0.69173336E-004 -0.18972196E+004  0.48346876E+003  0.43851718E+003
  0.69173336E-004 -0.18973618E+004  0.47543436E+003  0.43058951E+003
  0.69173336E-004 -0.18977620E+004  0.47520971E+003  0.43136333E+003
  0.69173336E-004 -0.18980222E+004  0.48324176E+003  0.43916440E+003
  0.69173336E-004 -0.18984608E+004  0.48332310E+003  0.43930816E+003
  0.69173336E-004 -0.18981603E+004  0.48203207E+003  0.43853424E+003
  0.69173336E-004 -0.18982522E+004  0.48218927E+003  0.43805468E+003
  0.69173336E-004 -0.19001567E+004  0.48171999E+003  0.43775275E+003
  0.69173336E-004 -0.18983929E+004  0.47589531E+003  0.43105465E+003
  0.69173336E-004 -0.18983933E+004  0.47586224E+003  0.43108757E+003
  0.69173336E-004 -0.18984927E+004  0.47565496E+003  0.43169454E+003
  0.69173336E-004 -0.18985681E+004  0.47561553E+003  0.43234459E+003
  0.69173336E-004 -0.18987778E+004  0.47530588E+003  0.43218237E+003
  0.69173336E-004 -0.18988743E+004  0.47540637E+003  0.43213136E+003
  0.69173336E-004 -0.18988754E+004  0.47584833E+003  0.43093760E+003
  0.69173336E-004 -0.19009052E+004  0.47981965E+003  0.43633409E+003
  0.69173336E-004 -0.18989763E+004  0.47563483E+003  0.43195659E+003
  0.69173336E-004 -0.18990365E+004  0.47572480E+003  0.43247127E+003
  0.69173336E-004 -0.18990586E+004  0.47602005E+003  0.43219017E+003
  0.69173336E-004 -0.18991088E+004  0.48228801E+003  0.43876245E+003
  0.69173336E-004 -0.19008450E+004  0.47639855E+003  0.43235801E+003
  0.69173336E-004 -0.18992024E+004  0.47541299E+003  0.43228910E+003
  0.69173336E-004 -0.19004476E+004  0.48146170E+003  0.43816322E+003
  0.69173336E-004 -0.19006100E+004  0.48087436E+003  0.43689274E+003
  0.69173336E-004 -0.18993993E+004  0.47606850E+003  0.43231300E+003
  0.69173336E-004 -0.18994134E+004  0.48115657E+003  0.43794182E+003
  0.69173336E-004 -0.18994301E+004  0.47627037E+003  0.43287015E+003
  0.69173336E-004 -0.18965065E+004  0.47496708E+003  0.43038584E+003
  0.69173336E-004 -0.18995081E+004  0.48028296E+003  0.43692624E+003
  0.69173336E-004 -0.18997855E+004  0.47637424E+003  0.43294566E+003
  0.69173336E-004 -0.18997998E+004  0.48181220E+003  0.43711126E+003
  0.69173336E-004 -0.18998243E+004  0.48145084E+003  0.43785472E+003
  0.69173336E-004 -0.18998907E+004  0.48069073E+003  0.43671060E+003
  0.69173336E-004 -0.18998995E+004  0.48279475E+003  0.43828694E+003
  0.69173336E-004 -0.18982032E+004  0.47521697E+003  0.43198254E+003
  0.69173336E-004 -0.18999381E+004  0.47610004E+003  0.43162588E+003
  0.69173336E-004 -0.18999422E+004  0.47646805E+003  0.43293135E+003
  0.69173336E-004 -0.18999545E+004  0.48173067E+003  0.43727311E+003
  0.69173336E-004 -0.19007554E+004  0.47967855E+003  0.43639957E+003
  0.69173336E-004 -0.18999676E+004  0.47598243E+003  0.43175697E+003
  0.69173336E-004 -0.19000321E+004  0.48060603E+003  0.43686813E+003
  0.69173336E-004 -0.18987398E+004  0.48251207E+003  0.43797741E+003
  0.69173336E-004 -0.19000796E+004  0.48151743E+003  0.43791820E+003
  0.69173336E-004 -0.18935535E+004  0.48310354E+003  0.43984198E+003
  0.69173336E-004 -0.19001235E+004  0.47621992E+003  0.43217322E+003
  0.69173336E-004 -0.19001291E+004  0.48042313E+003  0.43710200E+003
  0.69173336E-004 -0.19006608E+004  0.47697379E+003  0.43370159E+003
  0.69173336E-004 -0.19001479E+004  0.48052939E+003  0.43700452E+003
  0.69173336E-004 -0.19001809E+004  0.48050630E+003  0.43704462E+003
  0.69173336E-004 -0.19001852E+004  0.48185449E+003  0.43726599E+003
  0.69173336E-004 -0.18986682E+004  0.47549248E+003  0.43118568E+003
  0.69173336E-004 -0.19002421E+004  0.47627166E+003  0.43218144E+003
  0.69173336E-004 -0.19002150E+004  0.48302005E+003  0.43822027E+003
  0.69173336E-004 -0.19002498E+004  0.48160473E+003  0.43791711E+003
  0.69173336E-004 -0.19002558E+004  0.47610983E+003  0.43270149E+003
  0.69173336E-004 -0.18930011E+004  0.47399640E+003  0.42952151E+003
  0.69173336E-004 -0.19002573E+004  0.48129563E+003  0.43823371E+003
  0.69173336E-004 -0.19002578E+004  0.47691898E+003  0.43355326E+003
  0.69173336E-004 -0.19002731E+004  0.48173095E+003  0.43743617E+003
  0.69173336E-004 -0.19002816E+004  0.47600876E+003  0.43188819E+003
  0.69173336E-004 -0.19002962E+004  0.47608439E+003  0.43274695E+003
  0.69173336E-004 -0.19003017E+004  0.48205231E+003  0.43712543E+003
  0.69173336E-004 -0.19003024E+004  0.48060459E+003  0.43700759E+003
  0.69173336E-004 -0.19003374E+004  0.47642670E+003  0.43150268E+003
  0.69173336E-004 -0.19004307E+004  0.47643722E+003  0.43153896E+003
  0.69173336E-004 -0.19004426E+004  0.47953792E+003  0.43638169E+003
  0.69173336E-004 -0.19004601E+004  0.48083811E+003  0.43685274E+003
  0.69173336E-004 -0.19004671E+004  0.48211238E+003  0.43714936E+003
  0.69173336E-004 -0.19004838E+004  0.48070526E+003  0.43699875E+003
  0.69173336E-004 -0.19005042E+004  0.47649556E+003  0.43209107E+003
  0.69173336E-004 -0.18978494E+004  0.48192076E+003  0.43782853E+003
  0.69173336E-004 -0.19005230E+004  0.47660806E+003  0.43308421E+003
  0.69173336E-004 -0.19005357E+004  0.47646058E+003  0.43214153E+003
  0.69173336E-004 -0.18998465E+004  0.48292343E+003  0.43812878E+003
  0.69173336E-004 -0.19005764E+004  0.47642215E+003  0.43162685E+003
  0.69173336E-004 -0.19005893E+004  0.47651983E+003  0.43153669E+003
  0.69173336E-004 -0.19005936E+004  0.47710345E+003  0.43353898E+003
  0.69173336E-004 -0.19002175E+004  0.47632119E+003  0.43154702E+003
  0.69173336E-004 -0.19008620E+004  0.47733991E+003  0.43343919E+003
  0.69173336E-004 -0.19007435E+004  0.48187250E+003  0.43753397E+003
  0.69173336E-004 -0.19007545E+004  0.47669589E+003  0.43201813E+003
  0.69173336E-004 -0.19007592E+004  0.47642172E+003  0.43338749E+003
  0.69173336E-004 -0.19007632E+004  0.48197445E+003  0.43744081E+003
  0.69173336E-004 -0.18981718E+004  0.48241281E+003  0.43749550E+003
  0.69173336E-004 -0.19007935E+004  0.47677727E+003  0.43195708E+003
  0.69173336E-004 -0.19008024E+004  0.48049024E+003  0.43737814E+003
  0.69173336E-004 -0.19008184E+004  0.47737252E+003  0.43338489E+003
  0.69173336E-004 -0.18989135E+004  0.48199099E+003  0.43896376E+003
  0.69173336E-004 -0.19008391E+004  0.47641743E+003  0.43233636E+003
  0.69173336E-004 -0.18987818E+004  0.47564954E+003  0.43149248E+003
  0.69173336E-004 -0.19008714E+004  0.47765169E+003  0.43421435E+003
  0.69173336E-004 -0.18973792E+004  0.48318621E+003  0.43888851E+003
  0.69173336E-004 -0.19008875E+004  0.48191792E+003  0.43756181E+003
  0.69173336E-004 -0.19008989E+004  0.48068112E+003  0.43723500E+003
  0.69173336E-004 -0.19009012E+004  0.47683561E+003  0.43195330E+003
  0.69173336E-004 -0.19009077E+004  0.47654509E+003  0.43224431E+003
  0.69173336E-004 -0.19009305E+004  0.47696883E+003  0.43257707E+003
  0.69173336E-004 -0.19009475E+004  0.47653520E+003  0.43227408E+003
  0.69173336E-004 -0.19009805E+004  0.48101890E+003  0.43657313E+003
  0.69173336E-004 -0.19010192E+004  0.48095426E+003  0.43702113E+003
  0.69173336E-004 -0.18987484E+004  0.47537686E+003  0.43209750E+003
  0.69173336E-004 -0.19002028E+004  0.47645917E+003  0.43307097E+003
  0.69173336E-004 -0.19004815E+004  0.48176488E+003  0.43750865E+003
  0.69173336E-004 -0.19005627E+004  0.48320304E+003  0.43821314E+003
  0.69173336E-004 -0.19006424E+004  0.48069249E+003  0.43709259E+003
  0.69173336E-004 -0.19010015E+004  0.47993583E+003  0.43626640E+003
  0.69173336E-004 -0.19008127E+004  0.47651308E+003  0.43332380E+003
  0.69173336E-004 -0.19009234E+004  0.48059526E+003  0.43733408E+003
  0.69173336E-004 -0.18987467E+004  0.47525161E+003  0.43222044E+003
  0.69173336E-004 -0.19007538E+004  0.47692166E+003  0.43380015E+003
  0.69173336E-004 -0.18998926E+004  0.48127759E+003  0.43806502E+003
  0.69173336E-004 -0.18955740E+004  0.47458573E+003  0.43064718E+003
  0.69173336E-004 -0.19003196E+004  0.47660491E+003  0.43298516E+003
  0.69173336E-004 -0.19008747E+004  0.47643905E+003  0.43175952E+003
  0.69173336E-004 -0.19006669E+004  0.47723435E+003  0.43344590E+003
  0.69173336E-004 -0.19000944E+004  0.48050475E+003  0.43700201E+003
  0.69173336E-004 -0.19009785E+004  0.47706618E+003  0.43250464E+003
  0.69173336E-004 -0.18991284E+004  0.47597536E+003  0.43134373E+003
  0.69173336E-004 -0.18985982E+004  0.48229749E+003  0.43812278E+003
  0.69173336E-004 -0.18965562E+004  0.48262714E+003  0.43940325E+003
  0.69173336E-004 -0.19000707E+004  0.47622863E+003  0.43213809E+003
  0.69173336E-004 -0.18998705E+004  0.47650966E+003  0.43175941E+003
  0.69173336E-004 -0.18989954E+004  0.47561796E+003  0.43198286E+003
  0.69173336E-004 -0.18983419E+004  0.48233590E+003  0.43766059E+003
  0.69173336E-004 -0.19010243E+004  0.48210172E+003  0.43744580E+003
  0.69173336E-004 -0.18986686E+004  0.48262817E+003  0.43782268E+003
  0.69173336E-004 -0.19002111E+004  0.48187375E+003  0.43725981E+003
  0.69173336E-004 -0.18979854E+004  0.47524473E+003  0.43184602E+003
  0.69173336E-004 -0.18999857E+004  0.48283924E+003  0.43828609E+003
  0.69173336E-004 -0.19007414E+004  0.47631071E+003  0.43274614E+003
  0.69173336E-004 -0.18998708E+004  0.48259607E+003  0.43847426E+003
  0.69173336E-004 -0.18998284E+004  0.47626657E+003  0.43307391E+003
  0.69173336E-004 -0.19000960E+004  0.47611645E+003  0.43168872E+003
  0.69173336E-004 -0.18986293E+004  0.48130980E+003  0.43738485E+003
  0.69173336E-004 -0.19009029E+004  0.47662303E+003  0.43216474E+003
  0.69173336E-004 -0.18928987E+004  0.47410958E+003  0.42935851E+003
  0.69173336E-004 -0.19000787E+004  0.48298729E+003  0.43818340E+003
  0.69173336E-004 -0.18999785E+004  0.48175736E+003  0.43725844E+003
  0.69173336E-004 -0.19001832E+004  0.48034733E+003  0.43720600E+003
  0.69173336E-004 -0.18999452E+004  0.48297884E+003  0.43812324E+003
  0.69173336E-004 -0.19005084E+004  0.48039708E+003  0.43732191E+003
  0.69173336E-004 -0.18976730E+004  0.48204999E+003  0.43760725E+003
  0.69173336E-004 -0.18999659E+004  0.47622173E+003  0.43318741E+003
  0.69173336E-004 -0.18998528E+004  0.48040211E+003  0.43698212E+003
  0.69173336E-004 -0.19005270E+004  0.47991031E+003  0.43605064E+003
  0.69173336E-004 -0.19008831E+004  0.47807636E+003  0.43504847E+003
  0.69173336E-004 -0.19006031E+004  0.48147609E+003  0.43822838E+003
  0.69173336E-004 -0.18981541E+004  0.48204543E+003  0.43785848E+003
  0.69173336E-004 -0.19001209E+004  0.48170247E+003  0.43738699E+003
  0.69173336E-004 -0.19007741E+004  0.48176764E+003  0.43765584E+003
  0.69173336E-004 -0.19002139E+004  0.47651240E+003  0.43192886E+003
  0.69173336E-004 -0.19001328E+004  0.47634903E+003  0.43205002E+003
  0.69173336E-004 -0.18979174E+004  0.48204717E+003  0.43773540E+003
  0.69173336E-004 -0.18978486E+004  0.48195603E+003  0.43779240E+003
  0.69173336E-004 -0.18996053E+004  0.47582957E+003  0.43265277E+003
  0.69173336E-004 -0.18995209E+004  0.48259800E+003  0.43829215E+003
  0.69173336E-004 -0.19001307E+004  0.47649753E+003  0.43299677E+003
  0.69173336E-004 -0.19006929E+004  0.48078813E+003  0.43702199E+003
  0.69173336E-004 -0.18985948E+004  0.47564893E+003  0.43139947E+003
  0.69173336E-004 -0.19005531E+004  0.48318855E+003  0.43822295E+003
  0.69173336E-004 -0.18999600E+004  0.47634755E+003  0.43196481E+003
  0.69173336E-004 -0.18996134E+004  0.47602154E+003  0.43246681E+003
  0.69173336E-004 -0.18984690E+004  0.47575706E+003  0.43215484E+003
  0.69173336E-004 -0.19002694E+004  0.47635600E+003  0.43246469E+003
  0.69173336E-004 -0.18988134E+004  0.48232978E+003  0.43820073E+003
  0.69173336E-004 -0.19004014E+004  0.47658014E+003  0.43305081E+003
  0.69173336E-004 -0.19009373E+004  0.48210195E+003  0.43740095E+003
  0.69173336E-004 -0.18978905E+004  0.47553958E+003  0.43075002E+003
  0.69173336E-004 -0.18998820E+004  0.48040786E+003  0.43699122E+003
  0.69173336E-004 -0.19002949E+004  0.48295361E+003  0.43832895E+003
  0.69173336E-004 -0.19009061E+004  0.48085767E+003  0.43706076E+003
  0.69173336E-004 -0.18998192E+004  0.48151093E+003  0.43779127E+003
  0.69173336E-004 -0.19009878E+004  0.47684518E+003  0.43308257E+003
  0.69173336E-004 -0.19008811E+004  0.48068352E+003  0.43722349E+003
  0.69173336E-004 -0.19002254E+004  0.47679245E+003  0.43366261E+003
  0.69173336E-004 -0.19007449E+004  0.48086887E+003  0.43696716E+003
  0.69173336E-004 -0.19006283E+004  0.48087323E+003  0.43690326E+003
  0.69173336E-004 -0.19002756E+004  0.48134900E+003  0.43818909E+003
  0.69173336E-004 -0.19003638E+004  0.47670989E+003  0.43290333E+003
  0.69173336E-004 -0.18994035E+004  0.48026458E+003  0.43689136E+003
  0.69173336E-004 -0.18997222E+004  0.47589047E+003  0.43172505E+003
  0.69173336E-004 -0.18999011E+004  0.47656585E+003  0.43281377E+003
  0.69173336E-004 -0.18968254E+004  0.47487921E+003  0.43122113E+003
  0.69173336E-004 -0.19005886E+004  0.48084274E+003  0.43691371E+003
  0.69173336E-004 -0.18993736E+004  0.48254969E+003  0.43863279E+003
  0.69173336E-004 -0.18980328E+004  0.48222033E+003  0.43761920E+003
  0.69173336E-004 -0.18999912E+004  0.48038345E+003  0.43707159E+003
  0.69173336E-004 -0.18982091E+004  0.47553263E+003  0.43132138E+003
  0.69173336E-004 -0.19001382E+004  0.47952523E+003  0.43623958E+003
  0.69173336E-004 -0.18997662E+004  0.47637994E+003  0.43293030E+003
  0.69173336E-004 -0.19006716E+004  0.47621415E+003  0.43280675E+003
  0.69173336E-004 -0.18976842E+004  0.48344700E+003  0.43877978E+003
  0.69173336E-004 -0.18988102E+004  0.48226455E+003  0.43863256E+003
  0.69173336E-004 -0.18999895E+004  0.48299730E+003  0.43812730E+003
  0.69173336E-004 -0.18999159E+004  0.47663248E+003  0.43275513E+003
  0.69173336E-004 -0.19010061E+004  0.48098290E+003  0.43698558E+003
  0.69173336E-004 -0.18985769E+004  0.47589539E+003  0.43114670E+003
  0.69173336E-004 -0.18988137E+004  0.48218788E+003  0.43871228E+003
  0.69173336E-004 -0.19005677E+004  0.47640054E+003  0.43164388E+003
  0.69173336E-004 -0.18986238E+004  0.47560866E+003  0.43104861E+003
  0.69173336E-004 -0.19007981E+004  0.47654752E+003  0.43218693E+003
  0.69173336E-004 -0.19007713E+004  0.47656757E+003  0.43215366E+003
  0.69173336E-004 -0.19009771E+004  0.47707719E+003  0.43375801E+003
  0.69173336E-004 -0.19001472E+004  0.48272497E+003  0.43848550E+003
  0.69173336E-004 -0.19002235E+004  0.48292057E+003  0.43832583E+003
  0.69173336E-004 -0.19006963E+004  0.47634765E+003  0.43176056E+003
  0.69173336E-004 -0.19007815E+004  0.47806919E+003  0.43500426E+003
  0.69173336E-004 -0.19008279E+004  0.47677773E+003  0.43306914E+003
  0.69173336E-004 -0.18996399E+004  0.47609632E+003  0.43148023E+003
  0.69173336E-004 -0.18998626E+004  0.47595931E+003  0.43265337E+003
  0.69173336E-004 -0.18990934E+004  0.47598192E+003  0.43224534E+003
  0.69173336E-004 -0.18999692E+004  0.48048809E+003  0.43695491E+003
  0.69173336E-004 -0.19003830E+004  0.47673981E+003  0.43178840E+003
  0.69173336E-004 -0.18981677E+004  0.48203808E+003  0.43787290E+003
  0.69173336E-004 -0.19005691E+004  0.48148979E+003  0.43819707E+003
  0.69173336E-004 -0.19004685E+004  0.48287228E+003  0.43850106E+003
  0.69173336E-004 -0.19002655E+004  0.47965712E+003  0.43617188E+003
  0.69173336E-004 -0.18987176E+004  0.48239741E+003  0.43844983E+003
  0.69173336E-004 -0.19006909E+004  0.48200203E+003  0.43737584E+003
  0.69173336E-004 -0.19006400E+004  0.47742627E+003  0.43432202E+003
  0.69173336E-004 -0.19000391E+004  0.47936504E+003  0.43635004E+003
  0.69173336E-004 -0.19006565E+004  0.48057854E+003  0.43721465E+003
  0.69173336E-004 -0.19003508E+004  0.47602235E+003  0.43190938E+003
  0.69173336E-004 -0.18996423E+004  0.47582069E+003  0.43175409E+003
  0.69173336E-004 -0.18983750E+004  0.47552924E+003  0.43140778E+003
  0.69173336E-004 -0.18953978E+004  0.48384497E+003  0.43966795E+003
  0.69173336E-004 -0.18993593E+004  0.47603008E+003  0.43140522E+003
  0.69173336E-004 -0.18936297E+004  0.48501248E+003  0.44020799E+003
  0.69173336E-004 -0.18998556E+004  0.48176278E+003  0.43718993E+003
  0.69173336E-004 -0.18995198E+004  0.47615096E+003  0.43193885E+003
  0.69173336E-004 -0.19006362E+004  0.47639146E+003  0.43335572E+003
  0.69173336E-004 -0.19003978E+004  0.47957458E+003  0.43632209E+003
  0.69173336E-004 -0.18983035E+004  0.48239075E+003  0.43758540E+003
  0.69173336E-004 -0.18981749E+004  0.47569865E+003  0.43073507E+003
  0.69173336E-004 -0.18993504E+004  0.47595536E+003  0.43240048E+003
  0.69173336E-004 -0.19004750E+004  0.47625107E+003  0.43267161E+003
  0.69173336E-004 -0.19007241E+004  0.48190229E+003  0.43749384E+003
  0.69173336E-004 -0.19006030E+004  0.47739859E+003  0.43433091E+003
  0.69173336E-004 -0.18975991E+004  0.48200855E+003  0.43826916E+003
  0.69173336E-004 -0.18993248E+004  0.48107709E+003  0.43797684E+003
  0.69173336E-004 -0.19002036E+004  0.47601959E+003  0.43183839E+003
  0.69173336E-004 -0.18976424E+004  0.47546342E+003  0.43070117E+003
  0.69173336E-004 -0.18982835E+004  0.48235107E+003  0.43761530E+003
  0.69173336E-004 -0.18970342E+004  0.48321442E+003  0.43868122E+003
  0.69173336E-004 -0.18966561E+004  0.48310894E+003  0.43859341E+003
  0.69173336E-004 -0.18873613E+004  0.47271648E+003  0.42832593E+003
  0.69173336E-004 -0.18960148E+004  0.48411359E+003  0.43971281E+003
  0.69173336E-004 -0.19006670E+004  0.48314986E+003  0.43832092E+003
  0.69173336E-004 -0.19009652E+004  0.48080102E+003  0.43678507E+003
  0.69173336E-004 -0.19009461E+004  0.48070149E+003  0.43723861E+003
  0.69173336E-004 -0.18990216E+004  0.48108619E+003  0.43781224E+003
  0.69173336E-004 -0.19006427E+004  0.48071402E+003  0.43670814E+003
  0.69173336E-004 -0.19009552E+004  0.48070429E+003  0.43724042E+003
  0.69173336E-004 -0.18980908E+004  0.48203841E+003  0.43849201E+003
  0.69173336E-004 -0.18975003E+004  0.48169499E+003  0.43853702E+003
  0.69173336E-004 -0.18968458E+004  0.48304733E+003  0.43875452E+003
  0.69173336E-004 -0.19009231E+004  0.47908634E+003  0.43548246E+003
  0.69173336E-004 -0.18981106E+004  0.47548089E+003  0.43132322E+003
  0.69173336E-004 -0.19002507E+004  0.48142085E+003  0.43810362E+003
  0.69173336E-004 -0.19010002E+004  0.48069876E+003  0.43726894E+003
  0.69173336E-004 -0.19006142E+004  0.47633122E+003  0.43230897E+003
  0.69173336E-004 -0.19009584E+004  0.47657505E+003  0.43224004E+003
  0.69173336E-004 -0.18970076E+004  0.48159179E+003  0.43838824E+003
  0.69173336E-004 -0.19000040E+004  0.47621743E+003  0.43321080E+003
  0.69173336E-004 -0.19002032E+004  0.48178873E+003  0.43734183E+003
  0.69173336E-004 -0.19000139E+004  0.48174542E+003  0.43728863E+003
  0.69173336E-004 -0.19009224E+004  0.47647384E+003  0.43232226E+003
  0.69173336E-004 -0.18992548E+004  0.47585676E+003  0.43245010E+003
  0.69173336E-004 -0.19007546E+004  0.47700097E+003  0.43372177E+003
  0.69173336E-004 -0.19000438E+004  0.47624876E+003  0.43153164E+003
  0.69173336E-004 -0.19008064E+004  0.48181777E+003  0.43798684E+003
  0.69173336E-004 -0.18995421E+004  0.48143806E+003  0.43772298E+003
  0.69173336E-004 -0.18990361E+004  0.48099386E+003  0.43791310E+003
  0.69173336E-004 -0.18994470E+004  0.48260299E+003  0.43861643E+003
  0.69173336E-004 -0.18994310E+004  0.47604209E+003  0.43142923E+003
  0.69173336E-004 -0.19007033E+004  0.48300137E+003  0.43849066E+003
  0.69173336E-004 -0.19008829E+004  0.48184296E+003  0.43800055E+003
  0.69173336E-004 -0.19008590E+004  0.48203476E+003  0.43742885E+003
  0.69173336E-004 -0.18986566E+004  0.48109205E+003  0.43761921E+003
  0.69173336E-004 -0.18996013E+004  0.48039175E+003  0.43686417E+003
  0.69173336E-004 -0.19002895E+004  0.47672878E+003  0.43284731E+003
  0.69173336E-004 -0.18982233E+004  0.48192376E+003  0.43867676E+003
  0.69173336E-004 -0.19000093E+004  0.48294478E+003  0.43819092E+003
  0.69173336E-004 -0.19006531E+004  0.47649376E+003  0.43159439E+003
  0.69173336E-004 -0.18993996E+004  0.48112170E+003  0.43797006E+003
  0.69173336E-004 -0.19004022E+004  0.47655896E+003  0.43307220E+003
  0.69173336E-004 -0.19007597E+004  0.47734526E+003  0.43338245E+003
  0.69173336E-004 -0.19005733E+004  0.47670733E+003  0.43265714E+003
  0.69173336E-004 -0.19001306E+004  0.48161550E+003  0.43784507E+003
  0.69173336E-004 -0.18942952E+004  0.47449879E+003  0.42967233E+003
  0.69173336E-004 -0.18974665E+004  0.48317719E+003  0.43894289E+003
  0.69173336E-004 -0.18993292E+004  0.48251225E+003  0.43828066E+003
  0.69173336E-004 -0.18987643E+004  0.48203705E+003  0.43884015E+003
  0.69173336E-004 -0.18968365E+004  0.48270036E+003  0.43947352E+003
  0.69173336E-004 -0.19008244E+004  0.47970573E+003  0.43640737E+003
  0.69173336E-004 -0.18994080E+004  0.48252179E+003  0.43867890E+003
  0.69173336E-004 -0.19009008E+004  0.47735991E+003  0.43343884E+003
  0.69173336E-004 -0.19010186E+004  0.48117352E+003  0.43643662E+003
  0.69173336E-004 -0.18973585E+004  0.48308344E+003  0.43935233E+003
  0.69173336E-004 -0.19007466E+004  0.48074266E+003  0.43709526E+003
  0.69173336E-004 -0.18992815E+004  0.47602635E+003  0.43136994E+003
  0.69173336E-004 -0.18970592E+004  0.47488972E+003  0.43173316E+003
  0.69173336E-004 -0.19008506E+004  0.48176264E+003  0.43806528E+003
  0.69173336E-004 -0.19004974E+004  0.47977423E+003  0.43617224E+003
  0.69173336E-004 -0.18991309E+004  0.48252098E+003  0.43853703E+003
  0.69173336E-004 -0.18969329E+004  0.48300295E+003  0.43884495E+003
  0.69173336E-004 -0.19004495E+004  0.48077136E+003  0.43691464E+003
  0.69173336E-004 -0.19002269E+004  0.47609584E+003  0.43270088E+003
  0.69173336E-004 -0.18980936E+004  0.48350358E+003  0.43893376E+003
  0.69173336E-004 -0.18999385E+004  0.47595812E+003  0.43176647E+003
  0.69173336E-004 -0.18994705E+004  0.47610720E+003  0.43231041E+003
  0.69173336E-004 -0.19003828E+004  0.48294148E+003  0.43838658E+003
  0.69173336E-004 -0.19006215E+004  0.48290535E+003  0.43854619E+003
  0.69173336E-004 -0.18981898E+004  0.47545346E+003  0.43098491E+003
  0.69173336E-004 -0.19008585E+004  0.47697995E+003  0.43252992E+003
  0.69173336E-004 -0.18956474E+004  0.48420702E+003  0.43942582E+003
  0.69173336E-004 -0.19009640E+004  0.47695098E+003  0.43387679E+003
  0.69173336E-004 -0.19009932E+004  0.47652641E+003  0.43340122E+003
  0.69173336E-004 -0.19005710E+004  0.48041499E+003  0.43733584E+003
  0.69173336E-004 -0.19003181E+004  0.48052863E+003  0.43709220E+003
  0.69173336E-004 -0.19004091E+004  0.47610233E+003  0.43278578E+003
  0.69173336E-004 -0.19004422E+004  0.47693135E+003  0.43363376E+003
  0.69173336E-004 -0.19007803E+004  0.47805459E+003  0.43501820E+003
  0.69173336E-004 -0.18915731E+004  0.47339005E+003  0.42975642E+003
  0.69173336E-004 -0.19009433E+004  0.48087656E+003  0.43706072E+003
  0.69173336E-004 -0.19005945E+004  0.47634923E+003  0.43228129E+003
  0.69173336E-004 -0.18950874E+004  0.48247083E+003  0.43880309E+003
  0.69173336E-004 -0.19002472E+004  0.47669040E+003  0.43286409E+003
  0.69173336E-004 -0.19009209E+004  0.48084270E+003  0.43708339E+003
  0.69173336E-004 -0.19002745E+004  0.48188866E+003  0.43727719E+003
  0.69173336E-004 -0.19009835E+004  0.47690498E+003  0.43266706E+003
  0.69173336E-004 -0.18999709E+004  0.47622191E+003  0.43152170E+003
  0.69173336E-004 -0.19007598E+004  0.47641636E+003  0.43172443E+003
  0.69173336E-004 -0.19004574E+004  0.47645006E+003  0.43246588E+003
  0.69173336E-004 -0.18989697E+004  0.48210354E+003  0.43887831E+003
  0.69173336E-004 -0.19003018E+004  0.48133852E+003  0.43821312E+003
  0.69173336E-004 -0.18972782E+004  0.47502097E+003  0.43130767E+003
  0.69173336E-004 -0.18985387E+004  0.48360357E+003  0.43906183E+003
  0.69173336E-004 -0.18973522E+004  0.47503010E+003  0.43133567E+003
  0.69173336E-004 -0.18989634E+004  0.47575283E+003  0.43148127E+003
  0.69173336E-004 -0.18988035E+004  0.47599190E+003  0.43209009E+003
  0.69173336E-004 -0.19006104E+004  0.47683899E+003  0.43381007E+003
  0.69173336E-004 -0.19010071E+004  0.47718270E+003  0.43366832E+003
  0.69173336E-004 -0.18990634E+004  0.48282019E+003  0.43783059E+003
  0.69173336E-004 -0.19008768E+004  0.47905084E+003  0.43549449E+003
  0.69173336E-004 -0.19007516E+004  0.47956111E+003  0.43651556E+003
  0.69173336E-004 -0.19003559E+004  0.48286555E+003  0.43844992E+003
  0.69173336E-004 -0.19000475E+004  0.48150983E+003  0.43790944E+003
  0.69173336E-004 -0.18988439E+004  0.48386914E+003  0.43894830E+003
  0.69173336E-004 -0.18988479E+004  0.47584748E+003  0.43132977E+003
  0.69173336E-004 -0.18981853E+004  0.47558373E+003  0.43085389E+003
  0.69173336E-004 -0.19009281E+004  0.47897794E+003  0.43559349E+003
  0.69173336E-004 -0.18998563E+004  0.48153171E+003  0.43742430E+003
  0.69173336E-004 -0.18995592E+004  0.47612943E+003  0.43140707E+003
  0.69173336E-004 -0.18974759E+004  0.48182769E+003  0.43838957E+003
  0.69173336E-004 -0.19005601E+004  0.47955542E+003  0.43642389E+003
  0.69173336E-004 -0.18998984E+004  0.48156350E+003  0.43741368E+003
  0.69173336E-004 -0.19003192E+004  0.48172863E+003  0.43746216E+003
  0.69173336E-004 -0.18997742E+004  0.48159646E+003  0.43731663E+003
  0.69173336E-004 -0.19005831E+004  0.47656553E+003  0.43206130E+003
  0.69173336E-004 -0.19002325E+004  0.47633020E+003  0.43247172E+003
  0.69173336E-004 -0.18934283E+004  0.47384533E+003  0.43030508E+003
  0.69173336E-004 -0.18999825E+004  0.48274822E+003  0.43837701E+003
  0.69173336E-004 -0.18987658E+004  0.47597794E+003  0.43115961E+003
  0.69173336E-004 -0.19002915E+004  0.48303387E+003  0.43824558E+003
  0.69173336E-004 -0.19010036E+004  0.47827401E+003  0.43491212E+003
  0.69173336E-004 -0.19001372E+004  0.48271294E+003  0.43849257E+003
  0.69173336E-004 -0.19000823E+004  0.47637180E+003  0.43142925E+003
  0.69173336E-004 -0.19002088E+004  0.47612385E+003  0.43266408E+003
  0.69173336E-004 -0.18987139E+004  0.48266061E+003  0.43781298E+003
  0.69173336E-004 -0.19006328E+004  0.48187804E+003  0.43747159E+003
  0.69173336E-004 -0.18971156E+004  0.48275396E+003  0.43956317E+003
  0.69173336E-004 -0.18982572E+004  0.47569734E+003  0.43118251E+003
  0.69173336E-004 -0.19003772E+004  0.48301273E+003  0.43831120E+003
  0.69173336E-004 -0.18975143E+004  0.47489262E+003  0.43155256E+003
  0.69173336E-004 -0.18995129E+004  0.48263678E+003  0.43824857E+003
  0.69173336E-004 -0.19008935E+004  0.47669279E+003  0.43318623E+003
  0.69173336E-004 -0.18976838E+004  0.47502963E+003  0.43190763E+003
  0.69173336E-004 -0.19005682E+004  0.47645191E+003  0.43326168E+003
  0.69173336E-004 -0.19005006E+004  0.47703169E+003  0.43356349E+003
  0.69173336E-004 -0.18989436E+004  0.48095354E+003  0.43790647E+003
  0.69173336E-004 -0.18998281E+004  0.48034869E+003  0.43702337E+003
  0.69173336E-004 -0.18993486E+004  0.47604174E+003  0.43231408E+003
  0.69173336E-004 -0.18985348E+004  0.48353225E+003  0.43913267E+003
  0.69173336E-004 -0.18963826E+004  0.47486177E+003  0.43066552E+003
  0.69173336E-004 -0.18999825E+004  0.48176245E+003  0.43725533E+003
  0.69173336E-004 -0.19006985E+004  0.47744036E+003  0.43433750E+003
  0.69173336E-004 -0.18997867E+004  0.47629698E+003  0.43302286E+003
  0.69173336E-004 -0.18994516E+004  0.48128487E+003  0.43783157E+003
  0.69173336E-004 -0.18999800E+004  0.48036111E+003  0.43708837E+003
  0.69173336E-004 -0.18976187E+004  0.48208503E+003  0.43754392E+003
  0.69173336E-004 -0.18977366E+004  0.48217462E+003  0.43751363E+003
  0.69173336E-004 -0.18983833E+004  0.48241899E+003  0.43759769E+003
  0.69173336E-004 -0.18980510E+004  0.48236438E+003  0.43748266E+003
  0.69173336E-004 -0.18982480E+004  0.48223504E+003  0.43771458E+003
  0.69173336E-004 -0.18984375E+004  0.48225005E+003  0.43779657E+003
  0.69173336E-004 -0.18983870E+004  0.48232497E+003  0.43769481E+003
