  0.45962142E-004 -0.18955476E+004  0.47678371E+003  0.42759671E+003
  0.45962142E-004 -0.18962006E+004  0.47718269E+003  0.42743274E+003
  0.45962142E-004 -0.18964377E+004  0.47785969E+003  0.42723585E+003
  0.45962142E-004 -0.18965339E+004  0.47798174E+003  0.42716348E+003
  0.45962142E-004 -0.18965768E+004  0.48779348E+003  0.43831058E+003
  0.45962142E-004 -0.18968099E+004  0.48790067E+003  0.43832171E+003
  0.45962142E-004 -0.18974294E+004  0.48796529E+003  0.43857887E+003
  0.45962142E-004 -0.18975946E+004  0.48857928E+003  0.43840875E+003
  0.45962142E-004 -0.18976848E+004  0.48864280E+003  0.43839038E+003
  0.45962142E-004 -0.18981214E+004  0.48814496E+003  0.43875505E+003
  0.45962142E-004 -0.18987245E+004  0.48703871E+003  0.43755428E+003
  0.45962142E-004 -0.18988251E+004  0.47821345E+003  0.42815046E+003
  0.45962142E-004 -0.18990329E+004  0.47762735E+003  0.42847981E+003
  0.45962142E-004 -0.18990853E+004  0.48692837E+003  0.43785521E+003
  0.45962142E-004 -0.18992807E+004  0.47804652E+003  0.42818961E+003
  0.45962142E-004 -0.18993766E+004  0.48796196E+003  0.43732016E+003
  0.45962142E-004 -0.18994483E+004  0.48701970E+003  0.43795013E+003
  0.45962142E-004 -0.18994571E+004  0.47870809E+003  0.42797823E+003
  0.45962142E-004 -0.18994729E+004  0.48795625E+003  0.43737610E+003
  0.45962142E-004 -0.18994734E+004  0.47780767E+003  0.42852193E+003
  0.45962142E-004 -0.18994776E+004  0.47839760E+003  0.42829499E+003
  0.45962142E-004 -0.18995212E+004  0.48727666E+003  0.43772412E+003
  0.45962142E-004 -0.18998206E+004  0.48723490E+003  0.43792270E+003
  0.45962142E-004 -0.18999156E+004  0.47790391E+003  0.42864802E+003
  0.45962142E-004 -0.19000100E+004  0.48810117E+003  0.43750657E+003
  0.45962142E-004 -0.19001090E+004  0.47858791E+003  0.42842287E+003
  0.45962142E-004 -0.19002621E+004  0.48730136E+003  0.43808400E+003
  0.45962142E-004 -0.19002889E+004  0.47809360E+003  0.42864726E+003
  0.45962142E-004 -0.19004437E+004  0.48795918E+003  0.43787783E+003
  0.45962142E-004 -0.19005246E+004  0.48836082E+003  0.43750768E+003
  0.45962142E-004 -0.19006445E+004  0.48800382E+003  0.43793642E+003
  0.45962142E-004 -0.19006828E+004  0.48680894E+003  0.43670763E+003
  0.45962142E-004 -0.19006966E+004  0.48817859E+003  0.43778415E+003
  0.45962142E-004 -0.19007658E+004  0.48805015E+003  0.43795197E+003
  0.45962142E-004 -0.19007708E+004  0.47805682E+003  0.42892459E+003
  0.45962142E-004 -0.19008574E+004  0.47889254E+003  0.42849641E+003
  0.45962142E-004 -0.19008786E+004  0.47832005E+003  0.42871846E+003
  0.45962142E-004 -0.19009031E+004  0.48744839E+003  0.43826622E+003
  0.45962142E-004 -0.19009438E+004  0.47910376E+003  0.42833107E+003
  0.45962142E-004 -0.19010760E+004  0.47854843E+003  0.42859157E+003
  0.45962142E-004 -0.19010774E+004  0.48839706E+003  0.43775790E+003
  0.45962142E-004 -0.19011148E+004  0.48734497E+003  0.43638372E+003
  0.45962142E-004 -0.19011277E+004  0.48635318E+003  0.43703119E+003
  0.45962142E-004 -0.19011492E+004  0.47922400E+003  0.42831509E+003
  0.45962142E-004 -0.19011570E+004  0.48630004E+003  0.43710066E+003
  0.45962142E-004 -0.19011777E+004  0.47846114E+003  0.42872865E+003
  0.45962142E-004 -0.19013284E+004  0.47840913E+003  0.42909226E+003
  0.45962142E-004 -0.19013964E+004  0.47839914E+003  0.42913610E+003
  0.45962142E-004 -0.19014156E+004  0.47829574E+003  0.42924792E+003
  0.45962142E-004 -0.19015017E+004  0.48667675E+003  0.43689398E+003
  0.45962142E-004 -0.19015257E+004  0.48655393E+003  0.43703189E+003
  0.45962142E-004 -0.19015392E+004  0.48709398E+003  0.43685954E+003
  0.45962142E-004 -0.19015648E+004  0.47938764E+003  0.42859798E+003
  0.45962142E-004 -0.19015816E+004  0.47906696E+003  0.42892312E+003
  0.45962142E-004 -0.19015889E+004  0.48676156E+003  0.43685243E+003
  0.45962142E-004 -0.19016091E+004  0.48706558E+003  0.43692471E+003
  0.45962142E-004 -0.19016292E+004  0.48652538E+003  0.43711461E+003
  0.45962142E-004 -0.19016576E+004  0.47865420E+003  0.42901472E+003
  0.45962142E-004 -0.19016578E+004  0.47836640E+003  0.42929926E+003
  0.45962142E-004 -0.19017200E+004  0.47947316E+003  0.42859119E+003
  0.45962142E-004 -0.19017554E+004  0.47907533E+003  0.42900179E+003
  0.45962142E-004 -0.19017955E+004  0.48715020E+003  0.43693475E+003
  0.45962142E-004 -0.19018121E+004  0.47915243E+003  0.42895403E+003
  0.45962142E-004 -0.19018259E+004  0.48721460E+003  0.43688469E+003
  0.45962142E-004 -0.19018269E+004  0.47880438E+003  0.42895096E+003
  0.45962142E-004 -0.19018837E+004  0.47931514E+003  0.42882914E+003
  0.45962142E-004 -0.19019142E+004  0.47941929E+003  0.42874156E+003
  0.45962142E-004 -0.19019283E+004  0.48655005E+003  0.43724413E+003
  0.45962142E-004 -0.19020293E+004  0.47846365E+003  0.42938902E+003
  0.45962142E-004 -0.19020470E+004  0.48645482E+003  0.43740285E+003
  0.45962142E-004 -0.19020728E+004  0.47880152E+003  0.42907683E+003
  0.45962142E-004 -0.19021181E+004  0.48715966E+003  0.43709194E+003
  0.45962142E-004 -0.19006749E+004  0.47810128E+003  0.42906956E+003
  0.45962142E-004 -0.18956733E+004  0.47712318E+003  0.42732418E+003
  0.45962142E-004 -0.19007105E+004  0.48847484E+003  0.43748726E+003
  0.45962142E-004 -0.18939131E+004  0.47677592E+003  0.42678699E+003
  0.45962142E-004 -0.19008954E+004  0.47926803E+003  0.42838122E+003
  0.45962142E-004 -0.18980465E+004  0.47833475E+003  0.42757133E+003
  0.45962142E-004 -0.19008663E+004  0.48680628E+003  0.43680526E+003
  0.45962142E-004 -0.19008723E+004  0.47913888E+003  0.42849718E+003
  0.45962142E-004 -0.19013157E+004  0.48633106E+003  0.43715102E+003
  0.45962142E-004 -0.18951520E+004  0.48858480E+003  0.43958311E+003
  0.45962142E-004 -0.19020807E+004  0.47944558E+003  0.42879886E+003
  0.45962142E-004 -0.18991148E+004  0.48713033E+003  0.43766310E+003
  0.45962142E-004 -0.19012285E+004  0.48699817E+003  0.43679670E+003
  0.45962142E-004 -0.18993549E+004  0.47852573E+003  0.42810712E+003
  0.45962142E-004 -0.19020394E+004  0.47892766E+003  0.42893547E+003
  0.45962142E-004 -0.19008485E+004  0.47833621E+003  0.42868742E+003
  0.45962142E-004 -0.18976885E+004  0.48890404E+003  0.43812269E+003
  0.45962142E-004 -0.19010131E+004  0.48853415E+003  0.43758373E+003
  0.45962142E-004 -0.19019345E+004  0.48744106E+003  0.43670964E+003
  0.45962142E-004 -0.18982826E+004  0.48901101E+003  0.43832289E+003
  0.45962142E-004 -0.19010557E+004  0.47827175E+003  0.42885476E+003
  0.45962142E-004 -0.19006579E+004  0.48815612E+003  0.43778706E+003
  0.45962142E-004 -0.18998190E+004  0.47891995E+003  0.42795007E+003
  0.45962142E-004 -0.19001940E+004  0.48830030E+003  0.43739786E+003
  0.45962142E-004 -0.18949497E+004  0.48880934E+003  0.43924347E+003
  0.45962142E-004 -0.18973234E+004  0.47805074E+003  0.42749015E+003
  0.45962142E-004 -0.19016956E+004  0.48712768E+003  0.43690607E+003
  0.45962142E-004 -0.19009626E+004  0.47905290E+003  0.42862729E+003
  0.45962142E-004 -0.19006815E+004  0.47826582E+003  0.42867347E+003
  0.45962142E-004 -0.19003605E+004  0.47820634E+003  0.42857171E+003
  0.45962142E-004 -0.19009183E+004  0.48761460E+003  0.43810344E+003
  0.45962142E-004 -0.18993352E+004  0.48707153E+003  0.43783810E+003
  0.45962142E-004 -0.19009638E+004  0.48694015E+003  0.43671898E+003
  0.45962142E-004 -0.19019993E+004  0.48653581E+003  0.43729545E+003
  0.45962142E-004 -0.18972781E+004  0.47802470E+003  0.42749319E+003
  0.45962142E-004 -0.19020555E+004  0.47934192E+003  0.42888867E+003
  0.45962142E-004 -0.18994841E+004  0.48700356E+003  0.43798534E+003
  0.45962142E-004 -0.19016388E+004  0.48722143E+003  0.43678094E+003
  0.45962142E-004 -0.19020509E+004  0.47855536E+003  0.42930917E+003
  0.45962142E-004 -0.19018880E+004  0.48669521E+003  0.43707493E+003
  0.45962142E-004 -0.19017857E+004  0.47946775E+003  0.42862938E+003
  0.45962142E-004 -0.19013402E+004  0.48702487E+003  0.43682720E+003
  0.45962142E-004 -0.19020677E+004  0.47957831E+003  0.42866129E+003
  0.45962142E-004 -0.18968325E+004  0.48851939E+003  0.43807212E+003
  0.45962142E-004 -0.18999428E+004  0.48819310E+003  0.43737731E+003
  0.45962142E-004 -0.18914087E+004  0.48992736E+003  0.43961700E+003
  0.45962142E-004 -0.18999889E+004  0.48742684E+003  0.43781304E+003
  0.45962142E-004 -0.19012147E+004  0.47828606E+003  0.42915698E+003
  0.45962142E-004 -0.19019052E+004  0.48649225E+003  0.43729125E+003
  0.45962142E-004 -0.19006845E+004  0.48820095E+003  0.43775487E+003
  0.45962142E-004 -0.19001328E+004  0.48795999E+003  0.43771536E+003
  0.45962142E-004 -0.19004890E+004  0.47876316E+003  0.42843990E+003
  0.45962142E-004 -0.19016999E+004  0.48705911E+003  0.43697831E+003
  0.45962142E-004 -0.18997968E+004  0.48714551E+003  0.43800212E+003
  0.45962142E-004 -0.19009388E+004  0.47841709E+003  0.42865273E+003
  0.45962142E-004 -0.19008618E+004  0.48685550E+003  0.43675268E+003
  0.45962142E-004 -0.18992015E+004  0.47768218E+003  0.42850996E+003
  0.45962142E-004 -0.19018037E+004  0.48706785E+003  0.43702307E+003
  0.45962142E-004 -0.19012813E+004  0.47825036E+003  0.42922560E+003
  0.45962142E-004 -0.19019910E+004  0.47872026E+003  0.42911624E+003
  0.45962142E-004 -0.19019870E+004  0.48757461E+003  0.43660040E+003
  0.45962142E-004 -0.18954624E+004  0.47760464E+003  0.42709623E+003
  0.45962142E-004 -0.19014564E+004  0.47939413E+003  0.42853735E+003
  0.45962142E-004 -0.18979132E+004  0.48802561E+003  0.43876949E+003
  0.45962142E-004 -0.18994853E+004  0.48707266E+003  0.43791497E+003
  0.45962142E-004 -0.19018629E+004  0.47877487E+003  0.42899816E+003
  0.45962142E-004 -0.19012978E+004  0.48655967E+003  0.43690814E+003
  0.45962142E-004 -0.19015488E+004  0.47851302E+003  0.42909982E+003
  0.45962142E-004 -0.19014209E+004  0.48660089E+003  0.43692969E+003
  0.45962142E-004 -0.19011565E+004  0.48721883E+003  0.43653406E+003
  0.45962142E-004 -0.18971359E+004  0.47706690E+003  0.42801475E+003
  0.45962142E-004 -0.19017378E+004  0.48659832E+003  0.43709626E+003
  0.45962142E-004 -0.19016607E+004  0.48730038E+003  0.43671165E+003
  0.45962142E-004 -0.18982820E+004  0.47816173E+003  0.42792992E+003
  0.45962142E-004 -0.19014913E+004  0.47837236E+003  0.42921007E+003
  0.45962142E-004 -0.19010018E+004  0.47852011E+003  0.42881913E+003
  0.45962142E-004 -0.19009768E+004  0.48640608E+003  0.43689907E+003
  0.45962142E-004 -0.18975560E+004  0.47729660E+003  0.42799792E+003
  0.45962142E-004 -0.19008944E+004  0.48637377E+003  0.43688948E+003
  0.45962142E-004 -0.19013683E+004  0.48722866E+003  0.43663359E+003
  0.45962142E-004 -0.19012796E+004  0.48719716E+003  0.43661991E+003
  0.45962142E-004 -0.19018232E+004  0.48753500E+003  0.43655609E+003
  0.45962142E-004 -0.19012610E+004  0.48670755E+003  0.43673798E+003
  0.45962142E-004 -0.19019277E+004  0.48725134E+003  0.43689983E+003
  0.45962142E-004 -0.19001416E+004  0.48785528E+003  0.43782741E+003
  0.45962142E-004 -0.19008385E+004  0.48758019E+003  0.43809726E+003
  0.45962142E-004 -0.19009360E+004  0.48694834E+003  0.43669627E+003
  0.45962142E-004 -0.19009802E+004  0.47834769E+003  0.42897875E+003
  0.45962142E-004 -0.19017196E+004  0.47883086E+003  0.42887112E+003
  0.45962142E-004 -0.19016158E+004  0.48666097E+003  0.43696911E+003
  0.45962142E-004 -0.19008971E+004  0.47916911E+003  0.42824322E+003
  0.45962142E-004 -0.19015566E+004  0.48707497E+003  0.43688799E+003
  0.45962142E-004 -0.19012679E+004  0.48632235E+003  0.43713519E+003
  0.45962142E-004 -0.19020311E+004  0.48721457E+003  0.43699087E+003
  0.45962142E-004 -0.19000648E+004  0.48815694E+003  0.43747784E+003
  0.45962142E-004 -0.19009600E+004  0.47884755E+003  0.42882882E+003
  0.45962142E-004 -0.19017706E+004  0.47867715E+003  0.42904857E+003
  0.45962142E-004 -0.19013983E+004  0.47839149E+003  0.42914463E+003
  0.45962142E-004 -0.19007969E+004  0.48639997E+003  0.43681223E+003
  0.45962142E-004 -0.19010137E+004  0.48626807E+003  0.43705919E+003
  0.45962142E-004 -0.18986462E+004  0.48777277E+003  0.43713456E+003
  0.45962142E-004 -0.19010957E+004  0.48634924E+003  0.43701863E+003
  0.45962142E-004 -0.18993185E+004  0.48791540E+003  0.43733775E+003
  0.45962142E-004 -0.19018625E+004  0.48707572E+003  0.43704544E+003
  0.45962142E-004 -0.18987232E+004  0.47817480E+003  0.42813769E+003
  0.45962142E-004 -0.18988795E+004  0.48716552E+003  0.43750460E+003
  0.45962142E-004 -0.18952514E+004  0.48901425E+003  0.43918925E+003
  0.45962142E-004 -0.19011633E+004  0.47927008E+003  0.42827668E+003
  0.45962142E-004 -0.18997720E+004  0.47821408E+003  0.42826975E+003
  0.45962142E-004 -0.19014094E+004  0.48704405E+003  0.43684339E+003
  0.45962142E-004 -0.19015586E+004  0.48656551E+003  0.43703710E+003
  0.45962142E-004 -0.18997919E+004  0.48724570E+003  0.43789665E+003
  0.45962142E-004 -0.19020666E+004  0.48721456E+003  0.43700925E+003
  0.45962142E-004 -0.19001133E+004  0.48802923E+003  0.43763413E+003
  0.45962142E-004 -0.19000625E+004  0.48809500E+003  0.43754024E+003
  0.45962142E-004 -0.19016519E+004  0.47902742E+003  0.42899733E+003
  0.45962142E-004 -0.18994873E+004  0.47880377E+003  0.42789886E+003
  0.45962142E-004 -0.19006549E+004  0.48842456E+003  0.43750997E+003
  0.45962142E-004 -0.19020261E+004  0.48679816E+003  0.43704116E+003
  0.45962142E-004 -0.19016798E+004  0.48730151E+003  0.43672037E+003
  0.45962142E-004 -0.19002913E+004  0.47835423E+003  0.42839099E+003
  0.45962142E-004 -0.18990839E+004  0.48725537E+003  0.43751862E+003
  0.45962142E-004 -0.19011299E+004  0.48723276E+003  0.43650613E+003
  0.45962142E-004 -0.19010903E+004  0.47918958E+003  0.42855618E+003
  0.45962142E-004 -0.19020434E+004  0.47884765E+003  0.42901652E+003
  0.45962142E-004 -0.19015345E+004  0.47844551E+003  0.42915937E+003
  0.45962142E-004 -0.19019119E+004  0.48687974E+003  0.43689873E+003
  0.45962142E-004 -0.19004586E+004  0.47871587E+003  0.42847135E+003
  0.45962142E-004 -0.19020925E+004  0.48759502E+003  0.43663412E+003
  0.45962142E-004 -0.19019302E+004  0.47948793E+003  0.42868174E+003
  0.45962142E-004 -0.19011892E+004  0.48788999E+003  0.43796141E+003
  0.45962142E-004 -0.18971039E+004  0.47784021E+003  0.42758816E+003
  0.45962142E-004 -0.19012528E+004  0.47848058E+003  0.42898376E+003
  0.45962142E-004 -0.19004860E+004  0.47905787E+003  0.42814744E+003
  0.45962142E-004 -0.19019795E+004  0.48733927E+003  0.43683686E+003
  0.45962142E-004 -0.19009259E+004  0.48760534E+003  0.43811689E+003
  0.45962142E-004 -0.19008811E+004  0.47880815E+003  0.42859155E+003
  0.45962142E-004 -0.19000102E+004  0.48787716E+003  0.43773663E+003
  0.45962142E-004 -0.19012615E+004  0.48654177E+003  0.43690766E+003
  0.45962142E-004 -0.18989193E+004  0.48770112E+003  0.43735011E+003
  0.45962142E-004 -0.18993967E+004  0.48745055E+003  0.43748077E+003
  0.45962142E-004 -0.19010453E+004  0.47919952E+003  0.42828732E+003
  0.45962142E-004 -0.19015425E+004  0.48661542E+003  0.43697778E+003
  0.45962142E-004 -0.18942691E+004  0.47753481E+003  0.42656838E+003
  0.45962142E-004 -0.19007986E+004  0.48809341E+003  0.43792460E+003
  0.45962142E-004 -0.19011792E+004  0.47849378E+003  0.42893392E+003
  0.45962142E-004 -0.18977861E+004  0.48790422E+003  0.43882840E+003
  0.45962142E-004 -0.19015235E+004  0.48739467E+003  0.43654436E+003
  0.45962142E-004 -0.19004355E+004  0.48828739E+003  0.43753670E+003
  0.45962142E-004 -0.19017791E+004  0.47836521E+003  0.42936114E+003
  0.45962142E-004 -0.18951664E+004  0.48904010E+003  0.43911770E+003
  0.45962142E-004 -0.19020847E+004  0.48712895E+003  0.43710605E+003
  0.45962142E-004 -0.18993165E+004  0.48737802E+003  0.43751358E+003
  0.45962142E-004 -0.19019332E+004  0.47952143E+003  0.42865017E+003
  0.45962142E-004 -0.19013487E+004  0.47926672E+003  0.42860930E+003
  0.45962142E-004 -0.19010759E+004  0.48722012E+003  0.43649107E+003
  0.45962142E-004 -0.18989785E+004  0.48761104E+003  0.43747336E+003
  0.45962142E-004 -0.19015779E+004  0.48737325E+003  0.43659438E+003
  0.45962142E-004 -0.19011243E+004  0.47917560E+003  0.42858704E+003
  0.45962142E-004 -0.18983714E+004  0.48748949E+003  0.43728243E+003
  0.45962142E-004 -0.19015231E+004  0.47872572E+003  0.42887671E+003
  0.45962142E-004 -0.19013814E+004  0.48796554E+003  0.43798371E+003
  0.45962142E-004 -0.19009476E+004  0.48854098E+003  0.43754269E+003
  0.45962142E-004 -0.19003416E+004  0.47803147E+003  0.42873500E+003
  0.45962142E-004 -0.19008711E+004  0.48743287E+003  0.43826553E+003
  0.45962142E-004 -0.19016237E+004  0.48718892E+003  0.43680631E+003
  0.45962142E-004 -0.19017026E+004  0.48750561E+003  0.43652372E+003
  0.45962142E-004 -0.18979483E+004  0.47766181E+003  0.42783333E+003
  0.45962142E-004 -0.18996612E+004  0.47814334E+003  0.42828423E+003
  0.45962142E-004 -0.19012934E+004  0.47926761E+003  0.42858075E+003
  0.45962142E-004 -0.19002309E+004  0.48749889E+003  0.43786485E+003
  0.45962142E-004 -0.18995130E+004  0.47806675E+003  0.42828579E+003
  0.45962142E-004 -0.18994428E+004  0.48787879E+003  0.43743994E+003
  0.45962142E-004 -0.18980884E+004  0.47803678E+003  0.42788638E+003
  0.45962142E-004 -0.18995321E+004  0.48728174E+003  0.43772458E+003
  0.45962142E-004 -0.19002777E+004  0.48807979E+003  0.43766773E+003
  0.45962142E-004 -0.18963745E+004  0.48787880E+003  0.43811668E+003
  0.45962142E-004 -0.19000516E+004  0.48825892E+003  0.43736632E+003
  0.45962142E-004 -0.18997871E+004  0.48819964E+003  0.43728960E+003
  0.45962142E-004 -0.18990132E+004  0.48710908E+003  0.43763211E+003
  0.45962142E-004 -0.19016052E+004  0.47947666E+003  0.42853030E+003
  0.45962142E-004 -0.19007564E+004  0.48832750E+003  0.43766240E+003
  0.45962142E-004 -0.19016049E+004  0.48679021E+003  0.43683144E+003
  0.45962142E-004 -0.18976198E+004  0.47718407E+003  0.42814098E+003
  0.45962142E-004 -0.19010337E+004  0.48731185E+003  0.43637560E+003
  0.45962142E-004 -0.19011363E+004  0.48847317E+003  0.43771038E+003
  0.45962142E-004 -0.19008552E+004  0.48841893E+003  0.43761989E+003
  0.45962142E-004 -0.19004999E+004  0.47831784E+003  0.42853128E+003
  0.45962142E-004 -0.19019384E+004  0.48661705E+003  0.43718091E+003
  0.45962142E-004 -0.19005150E+004  0.47881395E+003  0.42840273E+003
  0.45962142E-004 -0.19020749E+004  0.47949345E+003  0.42874867E+003
  0.45962142E-004 -0.19014807E+004  0.48641808E+003  0.43714746E+003
  0.45962142E-004 -0.18993407E+004  0.47769986E+003  0.42856208E+003
  0.45962142E-004 -0.19005820E+004  0.47908700E+003  0.42816670E+003
  0.45962142E-004 -0.19009755E+004  0.47846821E+003  0.42862057E+003
  0.45962142E-004 -0.19006219E+004  0.47820850E+003  0.42893703E+003
  0.45962142E-004 -0.19002799E+004  0.48791732E+003  0.43783564E+003
  0.45962142E-004 -0.18985228E+004  0.47843490E+003  0.42771062E+003
  0.45962142E-004 -0.18995110E+004  0.48745738E+003  0.43753318E+003
  0.45962142E-004 -0.19015579E+004  0.47940908E+003  0.42857335E+003
  0.45962142E-004 -0.19010789E+004  0.47853433E+003  0.42860697E+003
  0.45962142E-004 -0.19014144E+004  0.47920537E+003  0.42870273E+003
  0.45962142E-004 -0.19013332E+004  0.47840418E+003  0.42909954E+003
  0.45962142E-004 -0.19006603E+004  0.48618832E+003  0.43695784E+003
  0.45962142E-004 -0.19004201E+004  0.48800366E+003  0.43781993E+003
  0.45962142E-004 -0.19012051E+004  0.48644902E+003  0.43697328E+003
  0.45962142E-004 -0.19014632E+004  0.48666271E+003  0.43688839E+003
  0.45962142E-004 -0.19017290E+004  0.47864761E+003  0.42905692E+003
  0.45962142E-004 -0.19016530E+004  0.48722211E+003  0.43678758E+003
  0.45962142E-004 -0.18999029E+004  0.48759047E+003  0.43760023E+003
  0.45962142E-004 -0.18993742E+004  0.47800366E+003  0.42827872E+003
  0.45962142E-004 -0.19019196E+004  0.47941113E+003  0.42875229E+003
  0.45962142E-004 -0.18985832E+004  0.48920708E+003  0.43827766E+003
  0.45962142E-004 -0.18989754E+004  0.47827260E+003  0.42816726E+003
  0.45962142E-004 -0.19011273E+004  0.48734211E+003  0.43639311E+003
  0.45962142E-004 -0.19011473E+004  0.47889665E+003  0.42887402E+003
  0.45962142E-004 -0.19019308E+004  0.47944895E+003  0.42872056E+003
  0.45962142E-004 -0.19019084E+004  0.48656426E+003  0.43721930E+003
  0.45962142E-004 -0.19012442E+004  0.48634698E+003  0.43709777E+003
  0.45962142E-004 -0.19017744E+004  0.48708953E+003  0.43698576E+003
  0.45962142E-004 -0.18955793E+004  0.48896427E+003  0.43941358E+003
  0.45962142E-004 -0.18985558E+004  0.48765808E+003  0.43720525E+003
  0.45962142E-004 -0.19008427E+004  0.47913360E+003  0.42825107E+003
  0.45962142E-004 -0.19013190E+004  0.47899493E+003  0.42886288E+003
  0.45962142E-004 -0.18999165E+004  0.47793679E+003  0.42861597E+003
  0.45962142E-004 -0.18964174E+004  0.47707134E+003  0.42765110E+003
  0.45962142E-004 -0.18972639E+004  0.47736876E+003  0.42778061E+003
  0.45962142E-004 -0.19015252E+004  0.48666530E+003  0.43691783E+003
  0.45962142E-004 -0.19018560E+004  0.47949755E+003  0.42863512E+003
  0.45962142E-004 -0.18987531E+004  0.48853174E+003  0.43868587E+003
  0.45962142E-004 -0.18963712E+004  0.48763367E+003  0.43836812E+003
  0.45962142E-004 -0.19013345E+004  0.47826368E+003  0.42923905E+003
  0.45962142E-004 -0.19005223E+004  0.47817659E+003  0.42891879E+003
  0.45962142E-004 -0.19013149E+004  0.47873906E+003  0.42875935E+003
  0.45962142E-004 -0.19020064E+004  0.48648597E+003  0.43735000E+003
  0.45962142E-004 -0.18983994E+004  0.48742253E+003  0.43736571E+003
  0.45962142E-004 -0.19005457E+004  0.48812776E+003  0.43775783E+003
  0.45962142E-004 -0.19003427E+004  0.47823367E+003  0.42853580E+003
  0.45962142E-004 -0.19014065E+004  0.47900619E+003  0.42889554E+003
  0.45962142E-004 -0.19002080E+004  0.47855313E+003  0.42850671E+003
  0.45962142E-004 -0.19003647E+004  0.47871027E+003  0.42866654E+003
  0.45962142E-004 -0.19014395E+004  0.47903235E+003  0.42888619E+003
  0.45962142E-004 -0.19010381E+004  0.48653667E+003  0.43679733E+003
  0.45962142E-004 -0.18987733E+004  0.47837141E+003  0.42796862E+003
  0.45962142E-004 -0.19005117E+004  0.47839690E+003  0.42845908E+003
  0.45962142E-004 -0.18986933E+004  0.48709718E+003  0.43747800E+003
  0.45962142E-004 -0.18998077E+004  0.47847251E+003  0.42838612E+003
  0.45962142E-004 -0.19013943E+004  0.47829640E+003  0.42923664E+003
  0.45962142E-004 -0.18998486E+004  0.48746840E+003  0.43769740E+003
  0.45962142E-004 -0.18989501E+004  0.48691965E+003  0.43779387E+003
  0.45962142E-004 -0.18985250E+004  0.48677154E+003  0.43772500E+003
  0.45962142E-004 -0.18990343E+004  0.47800408E+003  0.42810831E+003
  0.45962142E-004 -0.19000832E+004  0.47878688E+003  0.42821354E+003
  0.45962142E-004 -0.19020829E+004  0.47948907E+003  0.42875701E+003
  0.45962142E-004 -0.19008551E+004  0.47892855E+003  0.42845970E+003
  0.45962142E-004 -0.19005887E+004  0.47876716E+003  0.42872244E+003
  0.45962142E-004 -0.19006133E+004  0.48812202E+003  0.43779891E+003
  0.45962142E-004 -0.19011559E+004  0.48636624E+003  0.43703240E+003
  0.45962142E-004 -0.19013269E+004  0.47933702E+003  0.42852897E+003
  0.45962142E-004 -0.19013530E+004  0.48651526E+003  0.43698208E+003
  0.45962142E-004 -0.19007364E+004  0.48828362E+003  0.43769703E+003
  0.45962142E-004 -0.19002238E+004  0.47788563E+003  0.42882018E+003
  0.45962142E-004 -0.19020596E+004  0.47927315E+003  0.42895862E+003
  0.45962142E-004 -0.19009832E+004  0.47910923E+003  0.42834537E+003
  0.45962142E-004 -0.18994573E+004  0.47876581E+003  0.42792133E+003
  0.45962142E-004 -0.19015326E+004  0.48740220E+003  0.43654138E+003
  0.45962142E-004 -0.18998010E+004  0.48721982E+003  0.43792797E+003
  0.45962142E-004 -0.18979899E+004  0.47751038E+003  0.42800368E+003
  0.45962142E-004 -0.19005671E+004  0.48677381E+003  0.43668367E+003
  0.45962142E-004 -0.19013170E+004  0.47850165E+003  0.42899510E+003
  0.45962142E-004 -0.18989261E+004  0.47856333E+003  0.42785557E+003
  0.45962142E-004 -0.18983378E+004  0.48670272E+003  0.43769835E+003
  0.45962142E-004 -0.18994059E+004  0.47879425E+003  0.42786754E+003
  0.45962142E-004 -0.19010904E+004  0.47820316E+003  0.42917671E+003
  0.45962142E-004 -0.18998958E+004  0.48754912E+003  0.43763904E+003
  0.45962142E-004 -0.18983567E+004  0.47835714E+003  0.42770433E+003
  0.45962142E-004 -0.19011905E+004  0.48848064E+003  0.43773092E+003
  0.45962142E-004 -0.18953711E+004  0.47749146E+003  0.42716228E+003
  0.45962142E-004 -0.18987298E+004  0.47776112E+003  0.42819610E+003
  0.45962142E-004 -0.19017760E+004  0.47847677E+003  0.42924930E+003
  0.45962142E-004 -0.19011162E+004  0.48630875E+003  0.43707064E+003
  0.45962142E-004 -0.19017598E+004  0.47885032E+003  0.42887199E+003
  0.45962142E-004 -0.19020721E+004  0.48740138E+003  0.43682130E+003
  0.45962142E-004 -0.19011018E+004  0.48839224E+003  0.43777551E+003
  0.45962142E-004 -0.18965632E+004  0.48830938E+003  0.43814807E+003
  0.45962142E-004 -0.18958925E+004  0.48813478E+003  0.43797765E+003
  0.45962142E-004 -0.19007462E+004  0.48680173E+003  0.43674777E+003
  0.45962142E-004 -0.19019258E+004  0.48677919E+003  0.43700869E+003
  0.45962142E-004 -0.19005766E+004  0.47835758E+003  0.42853039E+003
  0.45962142E-004 -0.18977139E+004  0.48759410E+003  0.43677368E+003
  0.45962142E-004 -0.18977425E+004  0.48751767E+003  0.43686651E+003
  0.45962142E-004 -0.18982596E+004  0.48762266E+003  0.43702684E+003
  0.45962142E-004 -0.18983602E+004  0.48762429E+003  0.43707721E+003
  0.45962142E-004 -0.18982146E+004  0.48779431E+003  0.43682823E+003
  0.45962142E-004 -0.18982554E+004  0.48773885E+003  0.43690601E+003
  0.45962142E-004 -0.18981795E+004  0.48756700E+003  0.43704221E+003
  0.45962142E-004 -0.18978138E+004  0.48747417E+003  0.43694782E+003
  0.45962142E-004 -0.18982682E+004  0.48761497E+003  0.43703913E+003
  0.45962142E-004 -0.18983930E+004  0.48756952E+003  0.43715009E+003
  0.45962142E-004 -0.18979597E+004  0.48767427E+003  0.43681895E+003
  0.45962142E-004 -0.18977712E+004  0.48766406E+003  0.43673191E+003
  0.45962142E-004 -0.18981941E+004  0.48773451E+003  0.43687872E+003
  0.45962142E-004 -0.18982447E+004  0.48761942E+003  0.43702239E+003
  0.45962142E-004 -0.18984095E+004  0.48768110E+003  0.43704468E+003
  0.45962142E-004 -0.18985741E+004  0.48780471E+003  0.43700360E+003
  0.45962142E-004 -0.18987909E+004  0.48787636E+003  0.43704260E+003
  0.45962142E-004 -0.18985572E+004  0.48762791E+003  0.43717539E+003
  0.45962142E-004 -0.18985231E+004  0.48757380E+003  0.43721301E+003
  0.45962142E-004 -0.18987022E+004  0.48787992E+003  0.43699305E+003
  0.45962142E-004 -0.18987172E+004  0.48784873E+003  0.43703266E+003
  0.45962142E-004 -0.18985426E+004  0.48761460E+003  0.43718147E+003
  0.45962142E-004 -0.18984349E+004  0.48756204E+003  0.43717942E+003
  0.45962142E-004 -0.18985419E+004  0.48762208E+003  0.43717344E+003
  0.45962142E-004 -0.18985445E+004  0.48762199E+003  0.43717485E+003
  0.45962142E-004 -0.18984626E+004  0.48762157E+003  0.43713296E+003
  0.45962142E-004 -0.18986319E+004  0.48787275E+003  0.43696399E+003
