  0.41015719E-002 -0.18986265E+004  0.48061624E+003  0.43582657E+003
  0.41015719E-002 -0.18880682E+004  0.47394526E+003  0.42896995E+003
  0.41015719E-002 -0.18985682E+004  0.47990484E+003  0.43687275E+003
  0.41015719E-002 -0.18911225E+004  0.47403168E+003  0.43073597E+003
  0.41015719E-002 -0.18986322E+004  0.47766389E+003  0.43378871E+003
  0.41015719E-002 -0.18987087E+004  0.47847944E+003  0.43534875E+003
  0.41015719E-002 -0.18920883E+004  0.47464501E+003  0.43085122E+003
  0.41015719E-002 -0.18985066E+004  0.48114941E+003  0.43736131E+003
  0.41015719E-002 -0.18933018E+004  0.47529321E+003  0.43046652E+003
  0.41015719E-002 -0.18984629E+004  0.47766629E+003  0.43370114E+003
  0.41015719E-002 -0.18985311E+004  0.47747600E+003  0.43392447E+003
  0.41015719E-002 -0.18985960E+004  0.48147566E+003  0.43671465E+003
  0.41015719E-002 -0.18987111E+004  0.48005924E+003  0.43679040E+003
  0.41015719E-002 -0.18984277E+004  0.48100076E+003  0.43747087E+003
  0.41015719E-002 -0.18944869E+004  0.48324176E+003  0.43916440E+003
  0.41015719E-002 -0.18966214E+004  0.48171999E+003  0.43775275E+003
  0.41015719E-002 -0.18987186E+004  0.47775645E+003  0.43338487E+003
  0.41015719E-002 -0.18973096E+004  0.47639855E+003  0.43235801E+003
  0.41015719E-002 -0.18947399E+004  0.47535156E+003  0.43188559E+003
  0.41015719E-002 -0.18969122E+004  0.48146170E+003  0.43816322E+003
  0.41015719E-002 -0.18985550E+004  0.47883116E+003  0.43492002E+003
  0.41015719E-002 -0.18949573E+004  0.47565496E+003  0.43169454E+003
  0.41015719E-002 -0.18971255E+004  0.47697379E+003  0.43370159E+003
  0.41015719E-002 -0.18984428E+004  0.47731620E+003  0.43277300E+003
  0.41015719E-002 -0.18984522E+004  0.47796998E+003  0.43447482E+003
  0.41015719E-002 -0.18953400E+004  0.47584833E+003  0.43093760E+003
  0.41015719E-002 -0.18953908E+004  0.48378710E+003  0.43907472E+003
  0.41015719E-002 -0.18986674E+004  0.47946378E+003  0.43576807E+003
  0.41015719E-002 -0.18951328E+004  0.47549248E+003  0.43118568E+003
  0.41015719E-002 -0.18955233E+004  0.47602005E+003  0.43219017E+003
  0.41015719E-002 -0.18986640E+004  0.47932568E+003  0.43590455E+003
  0.41015719E-002 -0.18956089E+004  0.47608654E+003  0.43216731E+003
  0.41015719E-002 -0.18956670E+004  0.47541299E+003  0.43228910E+003
  0.41015719E-002 -0.18986783E+004  0.48047937E+003  0.43599044E+003
  0.41015719E-002 -0.18957752E+004  0.47587526E+003  0.43188631E+003
  0.41015719E-002 -0.18958639E+004  0.47606850E+003  0.43231300E+003
  0.41015719E-002 -0.18987600E+004  0.47826518E+003  0.43397962E+003
  0.41015719E-002 -0.18984375E+004  0.47928079E+003  0.43583461E+003
  0.41015719E-002 -0.18984488E+004  0.47742438E+003  0.43266868E+003
  0.41015719E-002 -0.18985146E+004  0.47947406E+003  0.43532085E+003
  0.41015719E-002 -0.18986525E+004  0.47745808E+003  0.43273757E+003
  0.41015719E-002 -0.18985809E+004  0.47791444E+003  0.43459499E+003
  0.41015719E-002 -0.18986970E+004  0.48035498E+003  0.43648627E+003
  0.41015719E-002 -0.18963554E+004  0.48069073E+003  0.43671060E+003
  0.41015719E-002 -0.18986142E+004  0.47940411E+003  0.43580081E+003
  0.41015719E-002 -0.18986912E+004  0.47769430E+003  0.43343286E+003
  0.41015719E-002 -0.18964028E+004  0.47610004E+003  0.43162588E+003
  0.41015719E-002 -0.18985551E+004  0.47690208E+003  0.43249810E+003
  0.41015719E-002 -0.18987790E+004  0.47873091E+003  0.43513331E+003
  0.41015719E-002 -0.18986831E+004  0.47945384E+003  0.43578596E+003
  0.41015719E-002 -0.18986026E+004  0.48070454E+003  0.43572565E+003
  0.41015719E-002 -0.18964967E+004  0.48060603E+003  0.43686813E+003
  0.41015719E-002 -0.18960252E+004  0.48141695E+003  0.43738891E+003
  0.41015719E-002 -0.18985407E+004  0.47760728E+003  0.43344366E+003
  0.41015719E-002 -0.18985357E+004  0.48141462E+003  0.43674546E+003
  0.41015719E-002 -0.18985056E+004  0.47758498E+003  0.43344812E+003
  0.41015719E-002 -0.18987264E+004  0.48136920E+003  0.43688864E+003
  0.41015719E-002 -0.18986004E+004  0.48110866E+003  0.43708708E+003
  0.41015719E-002 -0.18985352E+004  0.48127366E+003  0.43688736E+003
  0.41015719E-002 -0.18938438E+004  0.48318621E+003  0.43888851E+003
  0.41015719E-002 -0.18984713E+004  0.47928006E+003  0.43585249E+003
  0.41015719E-002 -0.18984550E+004  0.47722292E+003  0.43287167E+003
  0.41015719E-002 -0.18986576E+004  0.48032265E+003  0.43649867E+003
  0.41015719E-002 -0.18966797E+004  0.48302005E+003  0.43822027E+003
  0.41015719E-002 -0.18984644E+004  0.47946549E+003  0.43566343E+003
  0.41015719E-002 -0.18967204E+004  0.47610983E+003  0.43270149E+003
  0.41015719E-002 -0.18987445E+004  0.48146439E+003  0.43680188E+003
  0.41015719E-002 -0.18950940E+004  0.48130980E+003  0.43738485E+003
  0.41015719E-002 -0.18967224E+004  0.47691898E+003  0.43355326E+003
  0.41015719E-002 -0.18973676E+004  0.47662303E+003  0.43216474E+003
  0.41015719E-002 -0.18985948E+004  0.48125905E+003  0.43729583E+003
  0.41015719E-002 -0.18986342E+004  0.47786179E+003  0.43467428E+003
  0.41015719E-002 -0.18967664E+004  0.48205231E+003  0.43712543E+003
  0.41015719E-002 -0.18967670E+004  0.48060459E+003  0.43700759E+003
  0.41015719E-002 -0.18968021E+004  0.47642670E+003  0.43150268E+003
  0.41015719E-002 -0.18968953E+004  0.47643722E+003  0.43153896E+003
  0.41015719E-002 -0.18969072E+004  0.47953792E+003  0.43638169E+003
  0.41015719E-002 -0.18986482E+004  0.47721406E+003  0.43223582E+003
  0.41015719E-002 -0.18960204E+004  0.47610310E+003  0.43200431E+003
  0.41015719E-002 -0.18987786E+004  0.47775075E+003  0.43377612E+003
  0.41015719E-002 -0.18969688E+004  0.47649556E+003  0.43209107E+003
  0.41015719E-002 -0.18984046E+004  0.47787462E+003  0.43310945E+003
  0.41015719E-002 -0.18985487E+004  0.47731828E+003  0.43408993E+003
  0.41015719E-002 -0.18970004E+004  0.47646058E+003  0.43214153E+003
  0.41015719E-002 -0.18985862E+004  0.47744113E+003  0.43398679E+003
  0.41015719E-002 -0.18983999E+004  0.47792893E+003  0.43305312E+003
  0.41015719E-002 -0.18985963E+004  0.47882723E+003  0.43458693E+003
  0.41015719E-002 -0.18970582E+004  0.47710345E+003  0.43353898E+003
  0.41015719E-002 -0.18959855E+004  0.48259800E+003  0.43829215E+003
  0.41015719E-002 -0.18987331E+004  0.48023016E+003  0.43662998E+003
  0.41015719E-002 -0.18985019E+004  0.47852865E+003  0.43519507E+003
  0.41015719E-002 -0.18985698E+004  0.48124280E+003  0.43693615E+003
  0.41015719E-002 -0.18972238E+004  0.47642172E+003  0.43338749E+003
  0.41015719E-002 -0.18985259E+004  0.47840409E+003  0.43533151E+003
  0.41015719E-002 -0.18972437E+004  0.48184134E+003  0.43794896E+003
  0.41015719E-002 -0.18984592E+004  0.47701308E+003  0.43343608E+003
  0.41015719E-002 -0.18985298E+004  0.47852812E+003  0.43520969E+003
  0.41015719E-002 -0.18985952E+004  0.47724149E+003  0.43418957E+003
  0.41015719E-002 -0.18984816E+004  0.47770517E+003  0.43331659E+003
  0.41015719E-002 -0.18986042E+004  0.47789435E+003  0.43462673E+003
  0.41015719E-002 -0.18973180E+004  0.48078303E+003  0.43710908E+003
  0.41015719E-002 -0.18987491E+004  0.48030888E+003  0.43619776E+003
  0.41015719E-002 -0.18973392E+004  0.48095006E+003  0.43695154E+003
  0.41015719E-002 -0.18973522E+004  0.48191792E+003  0.43756181E+003
  0.41015719E-002 -0.18961868E+004  0.47589047E+003  0.43172505E+003
  0.41015719E-002 -0.18987569E+004  0.48072394E+003  0.43578466E+003
  0.41015719E-002 -0.18986731E+004  0.47765143E+003  0.43382168E+003
  0.41015719E-002 -0.18964542E+004  0.48299730E+003  0.43812730E+003
  0.41015719E-002 -0.18986023E+004  0.47812733E+003  0.43403740E+003
  0.41015719E-002 -0.18984278E+004  0.47856586E+003  0.43512049E+003
  0.41015719E-002 -0.18974838E+004  0.48095426E+003  0.43702113E+003
  0.41015719E-002 -0.18984995E+004  0.47756672E+003  0.43346320E+003
  0.41015719E-002 -0.18987261E+004  0.48059801E+003  0.43589554E+003
  0.41015719E-002 -0.18987238E+004  0.47831605E+003  0.43391070E+003
  0.41015719E-002 -0.18987043E+004  0.47818965E+003  0.43402675E+003
  0.41015719E-002 -0.18950415E+004  0.47589539E+003  0.43114670E+003
  0.41015719E-002 -0.18985388E+004  0.47850925E+003  0.43523309E+003
  0.41015719E-002 -0.18987906E+004  0.47862585E+003  0.43524400E+003
  0.41015719E-002 -0.18987826E+004  0.48072130E+003  0.43580036E+003
  0.41015719E-002 -0.18952113E+004  0.47525161E+003  0.43222044E+003
  0.41015719E-002 -0.18972185E+004  0.47692166E+003  0.43380015E+003
  0.41015719E-002 -0.18963572E+004  0.48127759E+003  0.43806502E+003
  0.41015719E-002 -0.18972849E+004  0.47761887E+003  0.43422123E+003
  0.41015719E-002 -0.18966119E+004  0.48272497E+003  0.43848550E+003
  0.41015719E-002 -0.18987392E+004  0.47937660E+003  0.43589168E+003
  0.41015719E-002 -0.18987359E+004  0.47756690E+003  0.43267146E+003
  0.41015719E-002 -0.18965590E+004  0.48050475E+003  0.43700201E+003
  0.41015719E-002 -0.18987282E+004  0.47747349E+003  0.43402607E+003
  0.41015719E-002 -0.18985926E+004  0.47718951E+003  0.43297390E+003
  0.41015719E-002 -0.18985311E+004  0.47952684E+003  0.43527634E+003
  0.41015719E-002 -0.18939377E+004  0.47507205E+003  0.43100329E+003
  0.41015719E-002 -0.18985190E+004  0.47779423E+003  0.43324692E+003
  0.41015719E-002 -0.18963352E+004  0.47650966E+003  0.43175941E+003
  0.41015719E-002 -0.18968932E+004  0.47961469E+003  0.43629746E+003
  0.41015719E-002 -0.18985148E+004  0.47709607E+003  0.43228576E+003
  0.41015719E-002 -0.18948396E+004  0.47552924E+003  0.43140778E+003
  0.41015719E-002 -0.18951333E+004  0.48262817E+003  0.43782268E+003
  0.41015719E-002 -0.18966758E+004  0.48187375E+003  0.43725981E+003
  0.41015719E-002 -0.18972966E+004  0.47659383E+003  0.43325343E+003
  0.41015719E-002 -0.18958239E+004  0.47603008E+003  0.43140522E+003
  0.41015719E-002 -0.18985123E+004  0.47765156E+003  0.43374062E+003
  0.41015719E-002 -0.18963354E+004  0.48259607E+003  0.43847426E+003
  0.41015719E-002 -0.18970706E+004  0.47744221E+003  0.43428903E+003
  0.41015719E-002 -0.18972600E+004  0.48091596E+003  0.43694546E+003
  0.41015719E-002 -0.18972473E+004  0.47675820E+003  0.43271181E+003
  0.41015719E-002 -0.18900943E+004  0.48501248E+003  0.44020799E+003
  0.41015719E-002 -0.18971008E+004  0.47639146E+003  0.43335572E+003
  0.41015719E-002 -0.18984965E+004  0.47741339E+003  0.43270355E+003
  0.41015719E-002 -0.18964432E+004  0.48175736E+003  0.43725844E+003
  0.41015719E-002 -0.18984667E+004  0.47921154E+003  0.43591873E+003
  0.41015719E-002 -0.18982499E+004  0.47715576E+003  0.43410099E+003
  0.41015719E-002 -0.18977908E+004  0.47861536E+003  0.43474908E+003
  0.41015719E-002 -0.18968137E+004  0.47620161E+003  0.43265741E+003
  0.41015719E-002 -0.18981544E+004  0.48031716E+003  0.43588697E+003
  0.41015719E-002 -0.18970676E+004  0.47739859E+003  0.43433091E+003
  0.41015719E-002 -0.18975809E+004  0.47652291E+003  0.43238525E+003
  0.41015719E-002 -0.18980342E+004  0.47753857E+003  0.43325709E+003
  0.41015719E-002 -0.18978381E+004  0.47899987E+003  0.43581188E+003
  0.41015719E-002 -0.18982097E+004  0.48017368E+003  0.43642043E+003
  0.41015719E-002 -0.18983374E+004  0.47983861E+003  0.43682187E+003
  0.41015719E-002 -0.18983232E+004  0.47712828E+003  0.43215781E+003
  0.41015719E-002 -0.18970387E+004  0.47640738E+003  0.43330877E+003
  0.41015719E-002 -0.18980817E+004  0.47907794E+003  0.43585724E+003
  0.41015719E-002 -0.18970396E+004  0.47617422E+003  0.43279778E+003
  0.41015719E-002 -0.18984182E+004  0.47689846E+003  0.43243307E+003
  0.41015719E-002 -0.18984153E+004  0.47760659E+003  0.43373652E+003
  0.41015719E-002 -0.18980847E+004  0.48093565E+003  0.43736134E+003
  0.41015719E-002 -0.18978288E+004  0.48133214E+003  0.43646774E+003
  0.41015719E-002 -0.18838259E+004  0.47271648E+003  0.42832593E+003
  0.41015719E-002 -0.18931995E+004  0.47488487E+003  0.43081893E+003
  0.41015719E-002 -0.18975364E+004  0.47651779E+003  0.43346364E+003
  0.41015719E-002 -0.18974368E+004  0.47964071E+003  0.43654785E+003
  0.41015719E-002 -0.18975976E+004  0.47713092E+003  0.43379751E+003
  0.41015719E-002 -0.18949336E+004  0.47575706E+003  0.43215484E+003
  0.41015719E-002 -0.18967340E+004  0.47635600E+003  0.43246469E+003
  0.41015719E-002 -0.18980838E+004  0.48025959E+003  0.43590886E+003
  0.41015719E-002 -0.18968660E+004  0.47658014E+003  0.43305081E+003
  0.41015719E-002 -0.18984138E+004  0.47747897E+003  0.43386248E+003
  0.41015719E-002 -0.18974012E+004  0.47698380E+003  0.43383038E+003
  0.41015719E-002 -0.18953372E+004  0.48270379E+003  0.43785074E+003
  0.41015719E-002 -0.18967595E+004  0.48295361E+003  0.43832895E+003
  0.41015719E-002 -0.18980784E+004  0.47671159E+003  0.43244779E+003
  0.41015719E-002 -0.18981547E+004  0.47756993E+003  0.43328655E+003
  0.41015719E-002 -0.18974525E+004  0.47684518E+003  0.43308257E+003
  0.41015719E-002 -0.18982520E+004  0.48103282E+003  0.43734883E+003
  0.41015719E-002 -0.18983820E+004  0.47844870E+003  0.43521426E+003
  0.41015719E-002 -0.18981773E+004  0.48136394E+003  0.43661358E+003
  0.41015719E-002 -0.18950986E+004  0.48242065E+003  0.43801591E+003
  0.41015719E-002 -0.18982839E+004  0.47846627E+003  0.43514713E+003
  0.41015719E-002 -0.18968285E+004  0.47670989E+003  0.43290333E+003
  0.41015719E-002 -0.18964739E+004  0.48294478E+003  0.43819092E+003
  0.41015719E-002 -0.18969505E+004  0.47681912E+003  0.43376718E+003
  0.41015719E-002 -0.18982148E+004  0.48020908E+003  0.43602627E+003
  0.41015719E-002 -0.18974647E+004  0.47778739E+003  0.43414414E+003
  0.41015719E-002 -0.18977426E+004  0.47689044E+003  0.43210229E+003
  0.41015719E-002 -0.18978299E+004  0.48089766E+003  0.43726957E+003
  0.41015719E-002 -0.18978291E+004  0.47891255E+003  0.43589473E+003
  0.41015719E-002 -0.18982271E+004  0.47765108E+003  0.43324232E+003
  0.41015719E-002 -0.18965206E+004  0.48168517E+003  0.43737126E+003
  0.41015719E-002 -0.18976409E+004  0.48009734E+003  0.43620772E+003
  0.41015719E-002 -0.18980248E+004  0.47865639E+003  0.43482640E+003
  0.41015719E-002 -0.18971363E+004  0.47621415E+003  0.43280675E+003
  0.41015719E-002 -0.18975257E+004  0.47662418E+003  0.43225727E+003
  0.41015719E-002 -0.18980169E+004  0.47922114E+003  0.43568106E+003
  0.41015719E-002 -0.18982555E+004  0.48007422E+003  0.43654360E+003
  0.41015719E-002 -0.18978288E+004  0.47720889E+003  0.43383641E+003
  0.41015719E-002 -0.18974833E+004  0.48117352E+003  0.43643662E+003
  0.41015719E-002 -0.18981705E+004  0.47835189E+003  0.43520397E+003
  0.41015719E-002 -0.18980608E+004  0.48117219E+003  0.43674752E+003
  0.41015719E-002 -0.18974105E+004  0.47648828E+003  0.43231973E+003
  0.41015719E-002 -0.18978546E+004  0.48096218E+003  0.43685404E+003
  0.41015719E-002 -0.18978722E+004  0.48015010E+003  0.43627245E+003
  0.41015719E-002 -0.18969685E+004  0.47611630E+003  0.43189306E+003
  0.41015719E-002 -0.18975592E+004  0.47928398E+003  0.43538611E+003
  0.41015719E-002 -0.18923655E+004  0.47469864E+003  0.43093695E+003
  0.41015719E-002 -0.18966882E+004  0.48292057E+003  0.43832583E+003
  0.41015719E-002 -0.18979681E+004  0.47713694E+003  0.43271244E+003
  0.41015719E-002 -0.18972371E+004  0.48082943E+003  0.43702099E+003
  0.41015719E-002 -0.18974958E+004  0.47834307E+003  0.43487164E+003
  0.41015719E-002 -0.18980259E+004  0.47828956E+003  0.43519305E+003
  0.41015719E-002 -0.18963273E+004  0.47595931E+003  0.43265337E+003
  0.41015719E-002 -0.18979541E+004  0.47701999E+003  0.43282142E+003
  0.41015719E-002 -0.18935238E+004  0.47488972E+003  0.43173316E+003
  0.41015719E-002 -0.18982792E+004  0.47690875E+003  0.43235321E+003
  0.41015719E-002 -0.18973589E+004  0.47900135E+003  0.43555288E+003
  0.41015719E-002 -0.18979449E+004  0.47931224E+003  0.43555340E+003
  0.41015719E-002 -0.18933976E+004  0.48300295E+003  0.43884495E+003
  0.41015719E-002 -0.18982885E+004  0.47853032E+003  0.43508552E+003
  0.41015719E-002 -0.18976461E+004  0.47669151E+003  0.43225093E+003
  0.41015719E-002 -0.18966915E+004  0.47609584E+003  0.43270088E+003
  0.41015719E-002 -0.18982671E+004  0.48140201E+003  0.43662106E+003
  0.41015719E-002 -0.18977344E+004  0.47774957E+003  0.43433224E+003
  0.41015719E-002 -0.18982776E+004  0.48028528E+003  0.43634288E+003
  0.41015719E-002 -0.18981986E+004  0.48096543E+003  0.43738949E+003
  0.41015719E-002 -0.18982648E+004  0.47745261E+003  0.43381371E+003
  0.41015719E-002 -0.18977318E+004  0.47726046E+003  0.43247129E+003
  0.41015719E-002 -0.18976376E+004  0.47914896E+003  0.43556101E+003
  0.41015719E-002 -0.18952926E+004  0.47555355E+003  0.43253620E+003
  0.41015719E-002 -0.18978747E+004  0.48129906E+003  0.43652451E+003
  0.41015719E-002 -0.18980076E+004  0.48019833E+003  0.43629285E+003
  0.41015719E-002 -0.18959844E+004  0.47615096E+003  0.43193885E+003
  0.41015719E-002 -0.18983896E+004  0.48020823E+003  0.43611607E+003
  0.41015719E-002 -0.18968625E+004  0.47957458E+003  0.43632209E+003
  0.41015719E-002 -0.18980999E+004  0.47746670E+003  0.43336158E+003
  0.41015719E-002 -0.18981157E+004  0.47750621E+003  0.43333027E+003
  0.41015719E-002 -0.18979483E+004  0.47730475E+003  0.43253606E+003
  0.41015719E-002 -0.18941484E+004  0.47502963E+003  0.43190763E+003
  0.41015719E-002 -0.18980476E+004  0.47763550E+003  0.43460371E+003
  0.41015719E-002 -0.18979305E+004  0.47670796E+003  0.43237722E+003
  0.41015719E-002 -0.18983210E+004  0.47685621E+003  0.43352217E+003
  0.41015719E-002 -0.18982253E+004  0.47792078E+003  0.43440936E+003
  0.41015719E-002 -0.18969652E+004  0.47703169E+003  0.43356349E+003
  0.41015719E-002 -0.18980348E+004  0.47678133E+003  0.43235687E+003
  0.41015719E-002 -0.18938038E+004  0.48345939E+003  0.43858862E+003
  0.41015719E-002 -0.18977687E+004  0.47928298E+003  0.43549338E+003
  0.41015719E-002 -0.18981035E+004  0.47833078E+003  0.43519115E+003
  0.41015719E-002 -0.18982555E+004  0.47711509E+003  0.43287844E+003
  0.41015719E-002 -0.18960939E+004  0.48145810E+003  0.43774739E+003
  0.41015719E-002 -0.18971316E+004  0.48314986E+003  0.43832092E+003
  0.41015719E-002 -0.18967772E+004  0.48203911E+003  0.43714435E+003
  0.41015719E-002 -0.18976566E+004  0.47823233E+003  0.43506345E+003
  0.41015719E-002 -0.18978458E+004  0.47701829E+003  0.43276875E+003
  0.41015719E-002 -0.18974603E+004  0.48083289E+003  0.43676846E+003
  0.41015719E-002 -0.18981332E+004  0.47862226E+003  0.43491531E+003
  0.41015719E-002 -0.18982447E+004  0.47777205E+003  0.43313099E+003
  0.41015719E-002 -0.18939649E+004  0.48169499E+003  0.43853702E+003
  0.41015719E-002 -0.18976632E+004  0.47888343E+003  0.43583974E+003
  0.41015719E-002 -0.18956332E+004  0.47559877E+003  0.43208854E+003
  0.41015719E-002 -0.18975471E+004  0.48110614E+003  0.43655184E+003
  0.41015719E-002 -0.18982886E+004  0.47686014E+003  0.43350199E+003
  0.41015719E-002 -0.18974648E+004  0.48069876E+003  0.43726894E+003
  0.41015719E-002 -0.18970788E+004  0.47633122E+003  0.43230897E+003
  0.41015719E-002 -0.18974230E+004  0.47657505E+003  0.43224004E+003
  0.41015719E-002 -0.18971790E+004  0.47616143E+003  0.43288035E+003
  0.41015719E-002 -0.18983217E+004  0.47906034E+003  0.43599657E+003
  0.41015719E-002 -0.18966678E+004  0.48178873E+003  0.43734183E+003
  0.41015719E-002 -0.18960253E+004  0.47617477E+003  0.43136294E+003
  0.41015719E-002 -0.18983813E+004  0.48053218E+003  0.43578627E+003
  0.41015719E-002 -0.18957194E+004  0.47585676E+003  0.43245010E+003
  0.41015719E-002 -0.18980871E+004  0.47664456E+003  0.43251855E+003
  0.41015719E-002 -0.18983935E+004  0.47726465E+003  0.43406512E+003
  0.41015719E-002 -0.18972711E+004  0.48181777E+003  0.43798684E+003
  0.41015719E-002 -0.18983925E+004  0.47762449E+003  0.43335197E+003
  0.41015719E-002 -0.18955008E+004  0.48099386E+003  0.43791310E+003
  0.41015719E-002 -0.18959116E+004  0.48260299E+003  0.43861643E+003
  0.41015719E-002 -0.18983577E+004  0.47841581E+003  0.43523481E+003
  0.41015719E-002 -0.18983427E+004  0.47764954E+003  0.43365732E+003
  0.41015719E-002 -0.18964516E+004  0.48272753E+003  0.43840036E+003
  0.41015719E-002 -0.18983383E+004  0.47776858E+003  0.43461781E+003
  0.41015719E-002 -0.18951213E+004  0.48109205E+003  0.43761921E+003
  0.41015719E-002 -0.18983351E+004  0.47913668E+003  0.43592695E+003
  0.41015719E-002 -0.18967542E+004  0.47672878E+003  0.43284731E+003
  0.41015719E-002 -0.18983311E+004  0.47949505E+003  0.43556624E+003
  0.41015719E-002 -0.18983137E+004  0.48023798E+003  0.43640876E+003
  0.41015719E-002 -0.18983054E+004  0.48144852E+003  0.43659365E+003
  0.41015719E-002 -0.18954082E+004  0.48095354E+003  0.43790647E+003
  0.41015719E-002 -0.18982905E+004  0.47762458E+003  0.43365586E+003
  0.41015719E-002 -0.18978106E+004  0.47731065E+003  0.43246106E+003
  0.41015719E-002 -0.18982383E+004  0.48087350E+003  0.43750241E+003
  0.41015719E-002 -0.18981746E+004  0.48023066E+003  0.43598413E+003
  0.41015719E-002 -0.18982369E+004  0.48012054E+003  0.43648761E+003
  0.41015719E-002 -0.18982248E+004  0.48100789E+003  0.43736005E+003
  0.41015719E-002 -0.18982137E+004  0.48034332E+003  0.43589081E+003
  0.41015719E-002 -0.18981460E+004  0.47687110E+003  0.43232369E+003
  0.41015719E-002 -0.18981496E+004  0.47942666E+003  0.43554266E+003
  0.41015719E-002 -0.18980429E+004  0.48142613E+003  0.43648225E+003
  0.41015719E-002 -0.18980064E+004  0.47706638E+003  0.43280166E+003
  0.41015719E-002 -0.18973654E+004  0.47735991E+003  0.43343884E+003
  0.41015719E-002 -0.18979858E+004  0.48088307E+003  0.43736385E+003
  0.41015719E-002 -0.18978723E+004  0.48108057E+003  0.43674365E+003
  0.41015719E-002 -0.18978585E+004  0.48081282E+003  0.43736965E+003
  0.41015719E-002 -0.18978220E+004  0.47702950E+003  0.43401114E+003
  0.41015719E-002 -0.18973544E+004  0.48177102E+003  0.43807687E+003
  0.41015719E-002 -0.18978153E+004  0.47999006E+003  0.43640420E+003
  0.41015719E-002 -0.18969620E+004  0.47977423E+003  0.43617224E+003
  0.41015719E-002 -0.18982336E+004  0.47715065E+003  0.43409788E+003
  0.41015719E-002 -0.18978124E+004  0.48098333E+003  0.43717426E+003
  0.41015719E-002 -0.18966734E+004  0.47612385E+003  0.43266408E+003
  0.41015719E-002 -0.18978056E+004  0.47744403E+003  0.43359123E+003
  0.41015719E-002 -0.18945583E+004  0.48350358E+003  0.43893376E+003
  0.41015719E-002 -0.18977536E+004  0.47836311E+003  0.43498199E+003
  0.41015719E-002 -0.18977250E+004  0.48098954E+003  0.43712338E+003
  0.41015719E-002 -0.18976519E+004  0.47720510E+003  0.43248606E+003
  0.41015719E-002 -0.18976341E+004  0.47918108E+003  0.43552710E+003
  0.41015719E-002 -0.18946545E+004  0.47545346E+003  0.43098491E+003
  0.41015719E-002 -0.18976184E+004  0.47700115E+003  0.43267157E+003
  0.41015719E-002 -0.18921120E+004  0.48420702E+003  0.43942582E+003
  0.41015719E-002 -0.18974287E+004  0.47695098E+003  0.43387679E+003
  0.41015719E-002 -0.18980557E+004  0.47902130E+003  0.43590076E+003
  0.41015719E-002 -0.18975341E+004  0.48061468E+003  0.43740375E+003
  0.41015719E-002 -0.18960239E+004  0.47612943E+003  0.43140707E+003
  0.41015719E-002 -0.18968737E+004  0.47610233E+003  0.43278578E+003
  0.41015719E-002 -0.18969069E+004  0.47693135E+003  0.43363376E+003
  0.41015719E-002 -0.18936641E+004  0.48291366E+003  0.43944346E+003
  0.41015719E-002 -0.18880377E+004  0.47339005E+003  0.42975642E+003
  0.41015719E-002 -0.18974080E+004  0.48087656E+003  0.43706072E+003
  0.41015719E-002 -0.18970592E+004  0.47634923E+003  0.43228129E+003
  0.41015719E-002 -0.18915521E+004  0.48247083E+003  0.43880309E+003
  0.41015719E-002 -0.18939405E+004  0.48182769E+003  0.43838957E+003
  0.41015719E-002 -0.18943305E+004  0.48357845E+003  0.43873944E+003
  0.41015719E-002 -0.18963630E+004  0.48156350E+003  0.43741368E+003
  0.41015719E-002 -0.18938168E+004  0.47503010E+003  0.43133567E+003
  0.41015719E-002 -0.18981810E+004  0.47670002E+003  0.43360667E+003
  0.41015719E-002 -0.18970477E+004  0.47656553E+003  0.43206130E+003
  0.41015719E-002 -0.18988462E+004  0.48122648E+003  0.43709374E+003
  0.41015719E-002 -0.18988613E+004  0.47788532E+003  0.43332862E+003
  0.41015719E-002 -0.18988787E+004  0.47850273E+003  0.43541145E+003
  0.41015719E-002 -0.18989190E+004  0.47754942E+003  0.43404670E+003
  0.41015719E-002 -0.18989342E+004  0.47730799E+003  0.43302786E+003
  0.41015719E-002 -0.18989375E+004  0.47798143E+003  0.43470808E+003
  0.41015719E-002 -0.18989589E+004  0.47764318E+003  0.43397363E+003
  0.41015719E-002 -0.18989984E+004  0.47976591E+003  0.43527382E+003
  0.41015719E-002 -0.18990005E+004  0.47874308E+003  0.43523315E+003
  0.41015719E-002 -0.18990089E+004  0.47744611E+003  0.43292836E+003
  0.41015719E-002 -0.18990269E+004  0.48127678E+003  0.43713527E+003
  0.41015719E-002 -0.18990372E+004  0.47795387E+003  0.43334895E+003
  0.41015719E-002 -0.18990439E+004  0.47807546E+003  0.43323150E+003
  0.41015719E-002 -0.18990794E+004  0.47805327E+003  0.43327139E+003
  0.41015719E-002 -0.18990905E+004  0.47973273E+003  0.43535374E+003
  0.41015719E-002 -0.18990932E+004  0.47742600E+003  0.43425687E+003
  0.41015719E-002 -0.18991078E+004  0.47773272E+003  0.43395964E+003
  0.41015719E-002 -0.18991123E+004  0.47930925E+003  0.43436642E+003
  0.41015719E-002 -0.18991234E+004  0.47998602E+003  0.43511673E+003
  0.41015719E-002 -0.18991775E+004  0.48084720E+003  0.43587472E+003
  0.41015719E-002 -0.18992082E+004  0.47809365E+003  0.43473287E+003
  0.41015719E-002 -0.18992283E+004  0.47916224E+003  0.43457187E+003
  0.41015719E-002 -0.18992347E+004  0.47793479E+003  0.43490439E+003
  0.41015719E-002 -0.18992423E+004  0.48047503E+003  0.43628172E+003
  0.41015719E-002 -0.18992446E+004  0.47730451E+003  0.43318716E+003
  0.41015719E-002 -0.18992658E+004  0.47816286E+003  0.43325627E+003
  0.41015719E-002 -0.18992747E+004  0.47774162E+003  0.43276869E+003
  0.41015719E-002 -0.18993088E+004  0.48003407E+003  0.43516258E+003
  0.41015719E-002 -0.18993411E+004  0.47873069E+003  0.43380895E+003
  0.41015719E-002 -0.18994442E+004  0.48137037E+003  0.43725395E+003
  0.41015719E-002 -0.18994533E+004  0.47925238E+003  0.43459557E+003
  0.41015719E-002 -0.18994625E+004  0.47932869E+003  0.43630639E+003
  0.41015719E-002 -0.18994694E+004  0.48050258E+003  0.43673096E+003
  0.41015719E-002 -0.18994719E+004  0.47817916E+003  0.43334375E+003
  0.41015719E-002 -0.18994931E+004  0.47793996E+003  0.43394764E+003
  0.41015719E-002 -0.18994997E+004  0.47899025E+003  0.43523886E+003
  0.41015719E-002 -0.18995131E+004  0.47865302E+003  0.43558217E+003
  0.41015719E-002 -0.18995339E+004  0.47954418E+003  0.43612689E+003
  0.41015719E-002 -0.18995518E+004  0.47750569E+003  0.43314188E+003
  0.41015719E-002 -0.18995780E+004  0.47940940E+003  0.43450183E+003
  0.41015719E-002 -0.18996128E+004  0.47853277E+003  0.43414304E+003
  0.41015719E-002 -0.18996380E+004  0.47927394E+003  0.43466740E+003
  0.41015719E-002 -0.18996612E+004  0.47901271E+003  0.43494002E+003
  0.41015719E-002 -0.18996853E+004  0.47814410E+003  0.43348594E+003
  0.41015719E-002 -0.18997227E+004  0.47899153E+003  0.43535030E+003
  0.41015719E-002 -0.18997239E+004  0.47878586E+003  0.43555615E+003
  0.41015719E-002 -0.18997367E+004  0.48169251E+003  0.43707833E+003
  0.41015719E-002 -0.18997664E+004  0.47878061E+003  0.43397365E+003
  0.41015719E-002 -0.18997692E+004  0.47838308E+003  0.43437101E+003
  0.41015719E-002 -0.18998222E+004  0.47916459E+003  0.43522791E+003
  0.41015719E-002 -0.18998528E+004  0.47913115E+003  0.43491861E+003
  0.41015719E-002 -0.18998614E+004  0.48184879E+003  0.43698437E+003
  0.41015719E-002 -0.18998715E+004  0.48079371E+003  0.43628154E+003
  0.41015719E-002 -0.18998764E+004  0.48023333E+003  0.43525077E+003
  0.41015719E-002 -0.18998939E+004  0.47773258E+003  0.43308861E+003
  0.41015719E-002 -0.18998987E+004  0.48095802E+003  0.43613021E+003
  0.41015719E-002 -0.18999001E+004  0.47947600E+003  0.43459814E+003
  0.41015719E-002 -0.18999373E+004  0.47987146E+003  0.43564415E+003
  0.41015719E-002 -0.18999403E+004  0.47996980E+003  0.43554716E+003
  0.41015719E-002 -0.18999617E+004  0.47907867E+003  0.43538415E+003
  0.41015719E-002 -0.18999673E+004  0.48015907E+003  0.43537126E+003
  0.41015719E-002 -0.19000065E+004  0.47977592E+003  0.43577491E+003
  0.41015719E-002 -0.19000074E+004  0.47785743E+003  0.43302172E+003
  0.41015719E-002 -0.19000690E+004  0.47826148E+003  0.43356234E+003
  0.41015719E-002 -0.19000826E+004  0.47837133E+003  0.43345997E+003
  0.41015719E-002 -0.19001188E+004  0.48068771E+003  0.43651385E+003
  0.41015719E-002 -0.19001295E+004  0.47921261E+003  0.43497716E+003
  0.41015719E-002 -0.19001308E+004  0.47990279E+003  0.43571087E+003
  0.41015719E-002 -0.19001504E+004  0.47953159E+003  0.43466917E+003
  0.41015719E-002 -0.19001709E+004  0.47918330E+003  0.43538550E+003
  0.41015719E-002 -0.19002066E+004  0.47829603E+003  0.43359722E+003
  0.41015719E-002 -0.19002211E+004  0.47947413E+003  0.43476225E+003
  0.41015719E-002 -0.19002250E+004  0.47843493E+003  0.43346840E+003
  0.41015719E-002 -0.19002300E+004  0.48090900E+003  0.43634805E+003
  0.41015719E-002 -0.19002701E+004  0.47921324E+003  0.43504757E+003
  0.41015719E-002 -0.19003015E+004  0.47962913E+003  0.43464810E+003
  0.41015719E-002 -0.19003167E+004  0.47922266E+003  0.43506173E+003
  0.41015719E-002 -0.19003187E+004  0.48032182E+003  0.43538641E+003
  0.41015719E-002 -0.19003370E+004  0.47832212E+003  0.43363687E+003
  0.41015719E-002 -0.19003994E+004  0.47870815E+003  0.43436500E+003
  0.41015719E-002 -0.19004631E+004  0.48006826E+003  0.43571357E+003
  0.41015719E-002 -0.19004908E+004  0.48089125E+003  0.43649854E+003
  0.41015719E-002 -0.19005028E+004  0.47955701E+003  0.43482191E+003
  0.41015719E-002 -0.19005207E+004  0.48091754E+003  0.43648731E+003
  0.41015719E-002 -0.19005267E+004  0.47900264E+003  0.43413583E+003
  0.41015719E-002 -0.19006127E+004  0.47826469E+003  0.43383265E+003
  0.41015719E-002 -0.19006201E+004  0.47888162E+003  0.43430346E+003
  0.41015719E-002 -0.19006275E+004  0.48096895E+003  0.43648997E+003
  0.41015719E-002 -0.19006345E+004  0.47922441E+003  0.43522063E+003
  0.41015719E-002 -0.19006347E+004  0.47927078E+003  0.43517445E+003
  0.41015719E-002 -0.19006528E+004  0.47995698E+003  0.43592124E+003
  0.41015719E-002 -0.19006714E+004  0.47890519E+003  0.43430584E+003
  0.41015719E-002 -0.19006840E+004  0.48098105E+003  0.43650659E+003
  0.41015719E-002 -0.19006941E+004  0.47904024E+003  0.43418276E+003
  0.41015719E-002 -0.19006983E+004  0.47894079E+003  0.43428397E+003
  0.41015719E-002 -0.19007032E+004  0.47973382E+003  0.43474661E+003
  0.41015719E-002 -0.19007334E+004  0.48024618E+003  0.43567245E+003
  0.41015719E-002 -0.19007369E+004  0.47998804E+003  0.43593277E+003
  0.41015719E-002 -0.19007387E+004  0.48011035E+003  0.43581115E+003
  0.41015719E-002 -0.19007569E+004  0.47850688E+003  0.43366447E+003
  0.41015719E-002 -0.19007571E+004  0.47872050E+003  0.43453306E+003
  0.41015719E-002 -0.19008044E+004  0.48021680E+003  0.43573787E+003
  0.41015719E-002 -0.19008115E+004  0.48015421E+003  0.43580412E+003
  0.41015719E-002 -0.19008350E+004  0.48125577E+003  0.43630731E+003
  0.41015719E-002 -0.19008565E+004  0.47974332E+003  0.43481463E+003
  0.41015719E-002 -0.19009281E+004  0.48039876E+003  0.43561834E+003
  0.41015719E-002 -0.19010306E+004  0.47903792E+003  0.43435474E+003
  0.41015719E-002 -0.19011354E+004  0.47982456E+003  0.43487448E+003
  0.41015719E-002 -0.19011885E+004  0.47964102E+003  0.43508464E+003
  0.41015719E-002 -0.19011923E+004  0.47906827E+003  0.43440605E+003
  0.41015719E-002 -0.19012906E+004  0.47918351E+003  0.43434084E+003
  0.41015719E-002 -0.19014639E+004  0.47990382E+003  0.43496139E+003
  0.41015719E-002 -0.19014289E+004  0.47988874E+003  0.43495875E+003
  0.41015719E-002 -0.18993798E+004  0.47870089E+003  0.43546700E+003
  0.41015719E-002 -0.19011797E+004  0.47980658E+003  0.43491486E+003
  0.41015719E-002 -0.19008075E+004  0.48007047E+003  0.43588598E+003
  0.41015719E-002 -0.19006367E+004  0.48002832E+003  0.43584161E+003
  0.41015719E-002 -0.19007983E+004  0.48006928E+003  0.43588252E+003
  0.41015719E-002 -0.19013755E+004  0.47923200E+003  0.43433534E+003
  0.41015719E-002 -0.19009219E+004  0.48039711E+003  0.43561681E+003
  0.41015719E-002 -0.19007916E+004  0.48039499E+003  0.43555291E+003
  0.41015719E-002 -0.19006485E+004  0.48039817E+003  0.43547716E+003
  0.41015719E-002 -0.19004850E+004  0.47838918E+003  0.43364467E+003
  0.41015719E-002 -0.19005119E+004  0.47894685E+003  0.43418392E+003
  0.41015719E-002 -0.19012105E+004  0.47919554E+003  0.43428849E+003
  0.41015719E-002 -0.19009310E+004  0.47963200E+003  0.43496348E+003
  0.41015719E-002 -0.19012958E+004  0.47975608E+003  0.43502398E+003
  0.41015719E-002 -0.19012643E+004  0.47987744E+003  0.43488683E+003
  0.41015719E-002 -0.19009384E+004  0.48017915E+003  0.43584352E+003
  0.41015719E-002 -0.19010874E+004  0.47906708E+003  0.43435436E+003
  0.41015719E-002 -0.19009965E+004  0.48031421E+003  0.43573769E+003
  0.41015719E-002 -0.19008548E+004  0.48029873E+003  0.43568133E+003
  0.41015719E-002 -0.19008839E+004  0.47941684E+003  0.43515455E+003
  0.41015719E-002 -0.19008491E+004  0.48043685E+003  0.43554009E+003
  0.41015719E-002 -0.19005441E+004  0.48099173E+003  0.43642469E+003
  0.41015719E-002 -0.18999726E+004  0.48187032E+003  0.43701944E+003
  0.41015719E-002 -0.19008381E+004  0.48113381E+003  0.43643145E+003
  0.41015719E-002 -0.18999665E+004  0.48016129E+003  0.43536863E+003
  0.41015719E-002 -0.19007654E+004  0.48036816E+003  0.43556646E+003
  0.41015719E-002 -0.19004357E+004  0.47871538E+003  0.43437609E+003
  0.41015719E-002 -0.19003977E+004  0.47870298E+003  0.43436929E+003
  0.41015719E-002 -0.19000765E+004  0.47814242E+003  0.43368443E+003
  0.41015719E-002 -0.19006514E+004  0.47839440E+003  0.43372322E+003
  0.41015719E-002 -0.19008056E+004  0.47841229E+003  0.43378301E+003
  0.41015719E-002 -0.19006077E+004  0.47839547E+003  0.43370014E+003
  0.41015719E-002 -0.19000106E+004  0.47823478E+003  0.43355945E+003
  0.41015719E-002 -0.19005108E+004  0.47930558E+003  0.43507705E+003
  0.41015719E-002 -0.19012147E+004  0.47950628E+003  0.43523244E+003
  0.41015719E-002 -0.19011334E+004  0.47948574E+003  0.43521188E+003
  0.41015719E-002 -0.18997152E+004  0.47906520E+003  0.43491492E+003
  0.41015719E-002 -0.19008772E+004  0.48034419E+003  0.43564718E+003
  0.41015719E-002 -0.19001693E+004  0.48008259E+003  0.43555030E+003
  0.41015719E-002 -0.19009815E+004  0.47876726E+003  0.43459958E+003
  0.41015719E-002 -0.19004825E+004  0.47814233E+003  0.43388877E+003
  0.41015719E-002 -0.19004183E+004  0.47813012E+003  0.43386858E+003
  0.41015719E-002 -0.19009568E+004  0.47900240E+003  0.43435293E+003
  0.41015719E-002 -0.19007280E+004  0.47928551E+003  0.43520690E+003
  0.41015719E-002 -0.19000204E+004  0.47903751E+003  0.43545492E+003
  0.41015719E-002 -0.18998917E+004  0.47901792E+003  0.43540940E+003
  0.41015719E-002 -0.18997631E+004  0.47975945E+003  0.43602764E+003
  0.41015719E-002 -0.19008350E+004  0.47856767E+003  0.43364337E+003
  0.41015719E-002 -0.18999547E+004  0.47832143E+003  0.43344525E+003
  0.41015719E-002 -0.19000147E+004  0.47834143E+003  0.43345556E+003
  0.41015719E-002 -0.19005950E+004  0.47834015E+003  0.43374875E+003
  0.41015719E-002 -0.19009060E+004  0.47965931E+003  0.43492358E+003
  0.41015719E-002 -0.18994312E+004  0.47861361E+003  0.43397097E+003
  0.41015719E-002 -0.19005168E+004  0.47832142E+003  0.43372801E+003
  0.41015719E-002 -0.18996146E+004  0.48072652E+003  0.43621834E+003
  0.41015719E-002 -0.18999417E+004  0.48081550E+003  0.43629535E+003
  0.41015719E-002 -0.19007122E+004  0.48110725E+003  0.43639407E+003
  0.41015719E-002 -0.19012140E+004  0.47962007E+003  0.43511848E+003
  0.41015719E-002 -0.19011806E+004  0.47947380E+003  0.43524765E+003
  0.41015719E-002 -0.18998230E+004  0.47796767E+003  0.43373053E+003
  0.41015719E-002 -0.18996942E+004  0.47995174E+003  0.43544043E+003
  0.41015719E-002 -0.19001572E+004  0.48028250E+003  0.43534389E+003
  0.41015719E-002 -0.18996336E+004  0.47839062E+003  0.43465179E+003
  0.41015719E-002 -0.19000781E+004  0.47811788E+003  0.43370963E+003
  0.41015719E-002 -0.19004534E+004  0.47831873E+003  0.43369878E+003
  0.41015719E-002 -0.19008488E+004  0.47955103E+003  0.43500280E+003
  0.41015719E-002 -0.18990491E+004  0.48041821E+003  0.43660188E+003
  0.41015719E-002 -0.18992281E+004  0.48046471E+003  0.43664623E+003
  0.41015719E-002 -0.18993302E+004  0.48053631E+003  0.43662626E+003
  0.41015719E-002 -0.19014215E+004  0.47920994E+003  0.43438052E+003
  0.41015719E-002 -0.18998023E+004  0.47772368E+003  0.43305145E+003
  0.41015719E-002 -0.18992919E+004  0.48129155E+003  0.43725568E+003
  0.41015719E-002 -0.18992184E+004  0.48037160E+003  0.43673480E+003
  0.41015719E-002 -0.18991944E+004  0.47751812E+003  0.43421633E+003
  0.41015719E-002 -0.18989971E+004  0.47746179E+003  0.43417300E+003
  0.41015719E-002 -0.18991773E+004  0.47748757E+003  0.43423802E+003
  0.41015719E-002 -0.19009322E+004  0.47957824E+003  0.43501778E+003
  0.41015719E-002 -0.19008355E+004  0.47954683E+003  0.43500028E+003
  0.41015719E-002 -0.19002224E+004  0.47945701E+003  0.43477999E+003
  0.41015719E-002 -0.18996243E+004  0.48007653E+003  0.43528001E+003
  0.41015719E-002 -0.19007770E+004  0.48107060E+003  0.43646389E+003
  0.41015719E-002 -0.18998924E+004  0.48077928E+003  0.43630664E+003
  0.41015719E-002 -0.18989787E+004  0.47867396E+003  0.43529110E+003
  0.41015719E-002 -0.18990531E+004  0.47795533E+003  0.43479235E+003
  0.41015719E-002 -0.18993721E+004  0.47875352E+003  0.43380181E+003
  0.41015719E-002 -0.19002781E+004  0.47846253E+003  0.43346769E+003
  0.41015719E-002 -0.18990199E+004  0.48038458E+003  0.43625946E+003
  0.41015719E-002 -0.18990787E+004  0.47988077E+003  0.43519947E+003
  0.41015719E-002 -0.18997491E+004  0.47814016E+003  0.43352195E+003
  0.41015719E-002 -0.18992252E+004  0.47940303E+003  0.43611164E+003
  0.41015719E-002 -0.19002689E+004  0.47943190E+003  0.43482862E+003
  0.41015719E-002 -0.18999222E+004  0.48012583E+003  0.43538167E+003
  0.41015719E-002 -0.19010305E+004  0.47939371E+003  0.43525172E+003
  0.41015719E-002 -0.19004762E+004  0.47886251E+003  0.43424996E+003
  0.41015719E-002 -0.19010194E+004  0.47898947E+003  0.43439735E+003
  0.41015719E-002 -0.18992260E+004  0.48051998E+003  0.43622825E+003
  0.41015719E-002 -0.19012375E+004  0.48050153E+003  0.43567227E+003
  0.41015719E-002 -0.18991868E+004  0.47893050E+003  0.43514031E+003
  0.41015719E-002 -0.19002782E+004  0.47894706E+003  0.43406592E+003
  0.41015719E-002 -0.19001011E+004  0.47815402E+003  0.43368527E+003
  0.41015719E-002 -0.18991004E+004  0.48148453E+003  0.43696326E+003
  0.41015719E-002 -0.19004231E+004  0.48031890E+003  0.43544225E+003
  0.41015719E-002 -0.18992066E+004  0.47863233E+003  0.43544788E+003
  0.41015719E-002 -0.18994357E+004  0.47771320E+003  0.43287774E+003
  0.41015719E-002 -0.18991998E+004  0.47748430E+003  0.43425260E+003
  0.41015719E-002 -0.18992354E+004  0.47929201E+003  0.43622793E+003
  0.41015719E-002 -0.18987929E+004  0.47743242E+003  0.43409943E+003
  0.41015719E-002 -0.18996320E+004  0.47770385E+003  0.43298560E+003
  0.41015719E-002 -0.19008824E+004  0.48021341E+003  0.43578077E+003
  0.41015719E-002 -0.19004464E+004  0.48013879E+003  0.43563450E+003
  0.41015719E-002 -0.18995340E+004  0.47975404E+003  0.43555724E+003
  0.41015719E-002 -0.19000636E+004  0.47879165E+003  0.43411252E+003
  0.41015719E-002 -0.18997731E+004  0.47978793E+003  0.43600424E+003
  0.41015719E-002 -0.19002089E+004  0.47912087E+003  0.43510889E+003
  0.41015719E-002 -0.19002750E+004  0.47829165E+003  0.43363598E+003
  0.41015719E-002 -0.18992214E+004  0.47829740E+003  0.43418018E+003
  0.41015719E-002 -0.19008462E+004  0.47913759E+003  0.43416249E+003
  0.41015719E-002 -0.19001559E+004  0.48197026E+003  0.43701221E+003
  0.41015719E-002 -0.18993438E+004  0.47966248E+003  0.43555251E+003
  0.41015719E-002 -0.18998027E+004  0.47818744E+003  0.43350192E+003
  0.41015719E-002 -0.18990187E+004  0.47921525E+003  0.43441296E+003
  0.41015719E-002 -0.19007910E+004  0.47843431E+003  0.43375376E+003
  0.41015719E-002 -0.18991709E+004  0.47896373E+003  0.43474108E+003
  0.41015719E-002 -0.19007298E+004  0.47841882E+003  0.43373836E+003
  0.41015719E-002 -0.19005503E+004  0.48105531E+003  0.43636391E+003
  0.41015719E-002 -0.18988664E+004  0.47755494E+003  0.43274889E+003
  0.41015719E-002 -0.19007842E+004  0.47899843E+003  0.43426984E+003
  0.41015719E-002 -0.19009549E+004  0.47913144E+003  0.43422344E+003
  0.41015719E-002 -0.19005595E+004  0.48107105E+003  0.43635278E+003
  0.41015719E-002 -0.19002279E+004  0.47855414E+003  0.43443191E+003
  0.41015719E-002 -0.19008643E+004  0.47944208E+003  0.43511944E+003
  0.41015719E-002 -0.18998545E+004  0.47908797E+003  0.43496260E+003
  0.41015719E-002 -0.19001732E+004  0.47892900E+003  0.43403097E+003
  0.41015719E-002 -0.18997993E+004  0.48179817E+003  0.43700371E+003
  0.41015719E-002 -0.19007207E+004  0.47941839E+003  0.43507047E+003
  0.41015719E-002 -0.19008976E+004  0.48046968E+003  0.43553184E+003
  0.41015719E-002 -0.18998175E+004  0.48171267E+003  0.43709929E+003
  0.41015719E-002 -0.18990137E+004  0.48074634E+003  0.43589275E+003
  0.41015719E-002 -0.19011885E+004  0.47983974E+003  0.43488620E+003
  0.41015719E-002 -0.18990325E+004  0.48028155E+003  0.43673068E+003
  0.41015719E-002 -0.19008386E+004  0.48028263E+003  0.43568928E+003
  0.41015719E-002 -0.18992432E+004  0.47886512E+003  0.43523406E+003
  0.41015719E-002 -0.19002229E+004  0.48100871E+003  0.43624423E+003
  0.41015719E-002 -0.18997079E+004  0.48088923E+003  0.43610233E+003
  0.41015719E-002 -0.18990341E+004  0.47857906E+003  0.43380517E+003
  0.41015719E-002 -0.18992467E+004  0.47974689E+003  0.43541878E+003
  0.41015719E-002 -0.18994632E+004  0.48077231E+003  0.43609533E+003
  0.41015719E-002 -0.18995352E+004  0.47852864E+003  0.43410804E+003
  0.41015719E-002 -0.18997882E+004  0.48091342E+003  0.43611887E+003
  0.41015719E-002 -0.19008247E+004  0.48026081E+003  0.43570409E+003
  0.41015719E-002 -0.19012042E+004  0.47920244E+003  0.43427841E+003
  0.41015719E-002 -0.18990554E+004  0.47863447E+003  0.43376071E+003
  0.41015719E-002 -0.18995940E+004  0.47784937E+003  0.43373295E+003
  0.41015719E-002 -0.18991794E+004  0.47771345E+003  0.43365945E+003
  0.41015719E-002 -0.18988706E+004  0.47761935E+003  0.43268711E+003
  0.41015719E-002 -0.18994950E+004  0.47921453E+003  0.43465444E+003
  0.41015719E-002 -0.19001825E+004  0.48003333E+003  0.43560633E+003
  0.41015719E-002 -0.19002002E+004  0.48092554E+003  0.43631626E+003
  0.41015719E-002 -0.18997548E+004  0.47769056E+003  0.43306043E+003
  0.41015719E-002 -0.18997732E+004  0.47938999E+003  0.43461986E+003
  0.41015719E-002 -0.19010546E+004  0.48038341E+003  0.43569781E+003
  0.41015719E-002 -0.18995409E+004  0.47824452E+003  0.43475046E+003
  0.41015719E-002 -0.18991545E+004  0.47819348E+003  0.43460645E+003
  0.41015719E-002 -0.19000727E+004  0.48082262E+003  0.43635481E+003
  0.41015719E-002 -0.18991939E+004  0.48157696E+003  0.43691774E+003
  0.41015719E-002 -0.18991583E+004  0.48150126E+003  0.43697592E+003
  0.41015719E-002 -0.18991925E+004  0.47813505E+003  0.43324701E+003
  0.41015719E-002 -0.19000515E+004  0.48021537E+003  0.43535755E+003
  0.41015719E-002 -0.19001469E+004  0.48001029E+003  0.43561135E+003
  0.41015719E-002 -0.19005553E+004  0.47997717E+003  0.43585155E+003
  0.41015719E-002 -0.18999421E+004  0.48060080E+003  0.43651128E+003
  0.41015719E-002 -0.19009041E+004  0.47915808E+003  0.43417131E+003
  0.41015719E-002 -0.19007916E+004  0.47997737E+003  0.43597117E+003
  0.41015719E-002 -0.19001586E+004  0.47825696E+003  0.43361187E+003
  0.41015719E-002 -0.19005609E+004  0.47953726E+003  0.43487098E+003
  0.41015719E-002 -0.19000500E+004  0.47784606E+003  0.43305440E+003
  0.41015719E-002 -0.19007246E+004  0.47950399E+003  0.43498698E+003
  0.41015719E-002 -0.18999699E+004  0.47872663E+003  0.43413001E+003
  0.41015719E-002 -0.18998885E+004  0.48014808E+003  0.43534233E+003
  0.41015719E-002 -0.19008875E+004  0.47847615E+003  0.43376073E+003
  0.41015719E-002 -0.18998428E+004  0.47987428E+003  0.43595314E+003
  0.41015719E-002 -0.18997414E+004  0.47974266E+003  0.43567379E+003
  0.41015719E-002 -0.19004818E+004  0.47880046E+003  0.43431458E+003
  0.41015719E-002 -0.19004716E+004  0.47830403E+003  0.43372254E+003
  0.41015719E-002 -0.18998602E+004  0.47976716E+003  0.43606915E+003
  0.41015719E-002 -0.19003350E+004  0.47998021E+003  0.43573681E+003
  0.41015719E-002 -0.19002473E+004  0.48065033E+003  0.43661677E+003
  0.41015719E-002 -0.18991009E+004  0.47749171E+003  0.43419548E+003
  0.41015719E-002 -0.18990927E+004  0.47959246E+003  0.43549533E+003
  0.41015719E-002 -0.18999993E+004  0.48101186E+003  0.43612732E+003
  0.41015719E-002 -0.18995308E+004  0.48007502E+003  0.43523411E+003
  0.41015719E-002 -0.19002764E+004  0.47884229E+003  0.43416937E+003
  0.41015719E-002 -0.18990540E+004  0.47809574E+003  0.43465306E+003
  0.41015719E-002 -0.19004116E+004  0.47999173E+003  0.43576413E+003
  0.41015719E-002 -0.18991803E+004  0.48149519E+003  0.43699328E+003
  0.41015719E-002 -0.18990124E+004  0.47749571E+003  0.43288094E+003
  0.41015719E-002 -0.19000250E+004  0.48078393E+003  0.43636943E+003
  0.41015719E-002 -0.18989930E+004  0.47852604E+003  0.43383725E+003
  0.41015719E-002 -0.18995826E+004  0.47905593E+003  0.43485713E+003
  0.41015719E-002 -0.18988856E+004  0.47753169E+003  0.43278160E+003
  0.41015719E-002 -0.18993859E+004  0.47940849E+003  0.43618769E+003
  0.41015719E-002 -0.18997852E+004  0.48017312E+003  0.43526488E+003
  0.41015719E-002 -0.18988890E+004  0.47851873E+003  0.43540066E+003
  0.41015719E-002 -0.18995544E+004  0.47815848E+003  0.43340578E+003
  0.41015719E-002 -0.18992513E+004  0.47989863E+003  0.43526911E+003
  0.41015719E-002 -0.19009138E+004  0.48016784E+003  0.43584237E+003
  0.41015719E-002 -0.18993077E+004  0.47813941E+003  0.43473754E+003
  0.41015719E-002 -0.19007444E+004  0.48040005E+003  0.43552388E+003
  0.41015719E-002 -0.18996182E+004  0.47895532E+003  0.43533360E+003
  0.41015719E-002 -0.18998081E+004  0.47963035E+003  0.43617971E+003
  0.41015719E-002 -0.18993150E+004  0.47812291E+003  0.43332071E+003
  0.41015719E-002 -0.18992232E+004  0.47903703E+003  0.43469431E+003
  0.41015719E-002 -0.18989109E+004  0.47922465E+003  0.43613084E+003
  0.41015719E-002 -0.18991535E+004  0.47798816E+003  0.43481032E+003
  0.41015719E-002 -0.18995212E+004  0.47910676E+003  0.43513346E+003
  0.41015719E-002 -0.18989851E+004  0.48149562E+003  0.43689317E+003
  0.41015719E-002 -0.18989862E+004  0.47867255E+003  0.43529629E+003
  0.41015719E-002 -0.18990936E+004  0.47831856E+003  0.43409467E+003
  0.41015719E-002 -0.19008737E+004  0.47847186E+003  0.43375805E+003
  0.41015719E-002 -0.18999603E+004  0.48020681E+003  0.43531987E+003
  0.41015719E-002 -0.18997041E+004  0.48014556E+003  0.43525135E+003
  0.41015719E-002 -0.18988498E+004  0.48040070E+003  0.43651807E+003
  0.41015719E-002 -0.19007361E+004  0.47925896E+003  0.43523747E+003
  0.41015719E-002 -0.18991288E+004  0.47862489E+003  0.43541594E+003
  0.41015719E-002 -0.19011698E+004  0.47893601E+003  0.43452647E+003
  0.41015719E-002 -0.18997557E+004  0.47931666E+003  0.43468425E+003
  0.41015719E-002 -0.19005098E+004  0.48088318E+003  0.43651633E+003
  0.41015719E-002 -0.19003067E+004  0.47824479E+003  0.43369847E+003
  0.41015719E-002 -0.19002252E+004  0.48084974E+003  0.43640512E+003
  0.41015719E-002 -0.18995084E+004  0.48141352E+003  0.43724316E+003
  0.41015719E-002 -0.18998474E+004  0.48004303E+003  0.43542670E+003
  0.41015719E-002 -0.19004044E+004  0.48010695E+003  0.43564506E+003
  0.41015719E-002 -0.18994736E+004  0.47846992E+003  0.43449218E+003
  0.41015719E-002 -0.19010544E+004  0.48016893E+003  0.43591256E+003
  0.41015719E-002 -0.18988400E+004  0.47797781E+003  0.43466254E+003
  0.41015719E-002 -0.18988481E+004  0.47985042E+003  0.43511296E+003
  0.41015719E-002 -0.18992634E+004  0.48060662E+003  0.43616020E+003
  0.41015719E-002 -0.18996326E+004  0.47862405E+003  0.43406213E+003
  0.41015719E-002 -0.19005758E+004  0.47954931E+003  0.43486648E+003
  0.41015719E-002 -0.18997197E+004  0.48018255E+003  0.43522219E+003
  0.41015719E-002 -0.19004465E+004  0.48034131E+003  0.43543166E+003
  0.41015719E-002 -0.18989904E+004  0.47762079E+003  0.43401174E+003
  0.41015719E-002 -0.19000044E+004  0.47856169E+003  0.43466848E+003
  0.41015719E-002 -0.18990671E+004  0.47830481E+003  0.43445159E+003
  0.41015719E-002 -0.18990843E+004  0.47903409E+003  0.43462703E+003
  0.41015719E-002 -0.18992900E+004  0.47962593E+003  0.43556186E+003
  0.41015719E-002 -0.18989713E+004  0.48031387E+003  0.43630578E+003
  0.41015719E-002 -0.18996437E+004  0.48060503E+003  0.43635525E+003
  0.41015719E-002 -0.19003539E+004  0.47885278E+003  0.43419796E+003
  0.41015719E-002 -0.18990452E+004  0.47851556E+003  0.43387401E+003
  0.41015719E-002 -0.18998625E+004  0.48098611E+003  0.43608359E+003
  0.41015719E-002 -0.19005172E+004  0.48088141E+003  0.43652184E+003
  0.41015719E-002 -0.18998673E+004  0.47803093E+003  0.43368999E+003
  0.41015719E-002 -0.18991026E+004  0.47742954E+003  0.43425810E+003
  0.41015719E-002 -0.18998255E+004  0.47835399E+003  0.43478501E+003
  0.41015719E-002 -0.18990063E+004  0.47946943E+003  0.43593422E+003
  0.41015719E-002 -0.18998550E+004  0.47834302E+003  0.43481080E+003
  0.41015719E-002 -0.19013778E+004  0.48058199E+003  0.43566280E+003
  0.41015719E-002 -0.18991988E+004  0.47782011E+003  0.43356321E+003
  0.41015719E-002 -0.19009863E+004  0.48017749E+003  0.43586946E+003
  0.41015719E-002 -0.18996067E+004  0.47817332E+003  0.43485451E+003
  0.41015719E-002 -0.19003213E+004  0.47928668E+003  0.43500013E+003
  0.41015719E-002 -0.18998452E+004  0.48190404E+003  0.43692040E+003
  0.41015719E-002 -0.19000229E+004  0.47887901E+003  0.43400497E+003
  0.41015719E-002 -0.18995455E+004  0.48069361E+003  0.43621629E+003
  0.41015719E-002 -0.18995383E+004  0.47978271E+003  0.43553072E+003
  0.41015719E-002 -0.19001182E+004  0.47953148E+003  0.43465296E+003
  0.41015719E-002 -0.18989689E+004  0.48005304E+003  0.43692779E+003
  0.41015719E-002 -0.18993473E+004  0.47823683E+003  0.43466053E+003
  0.41015719E-002 -0.19005979E+004  0.48118477E+003  0.43625806E+003
  0.41015719E-002 -0.18988084E+004  0.47739791E+003  0.43414150E+003
  0.41015719E-002 -0.19002830E+004  0.47989610E+003  0.43579472E+003
  0.41015719E-002 -0.18992792E+004  0.47829070E+003  0.43457254E+003
  0.41015719E-002 -0.19002445E+004  0.48019794E+003  0.43547286E+003
  0.41015719E-002 -0.18987962E+004  0.48031867E+003  0.43657320E+003
  0.41015719E-002 -0.18993063E+004  0.47799313E+003  0.43488238E+003
  0.41015719E-002 -0.18989741E+004  0.48127969E+003  0.43710539E+003
  0.41015719E-002 -0.18991226E+004  0.47780634E+003  0.43389393E+003
  0.41015719E-002 -0.18993884E+004  0.48055841E+003  0.43627225E+003
  0.41015719E-002 -0.18991934E+004  0.48036939E+003  0.43636298E+003
  0.41015719E-002 -0.18999611E+004  0.47858831E+003  0.43426334E+003
  0.41015719E-002 -0.18995688E+004  0.47816232E+003  0.43340924E+003
  0.41015719E-002 -0.18995911E+004  0.47978126E+003  0.43555894E+003
  0.41015719E-002 -0.18992935E+004  0.47888974E+003  0.43487697E+003
  0.41015719E-002 -0.19006159E+004  0.47901342E+003  0.43417008E+003
  0.41015719E-002 -0.18991861E+004  0.47860611E+003  0.43546367E+003
  0.41015719E-002 -0.18996485E+004  0.48181361E+003  0.43691116E+003
  0.41015719E-002 -0.19008618E+004  0.48041967E+003  0.43556378E+003
  0.41015719E-002 -0.19003347E+004  0.48015504E+003  0.43556155E+003
  0.41015719E-002 -0.18991829E+004  0.47878961E+003  0.43527891E+003
  0.41015719E-002 -0.18990319E+004  0.48032777E+003  0.43632269E+003
  0.41015719E-002 -0.18998500E+004  0.47903292E+003  0.43537337E+003
  0.41015719E-002 -0.19006493E+004  0.47905621E+003  0.43414427E+003
  0.41015719E-002 -0.19004360E+004  0.48074108E+003  0.43662155E+003
  0.41015719E-002 -0.18992964E+004  0.47859728E+003  0.43552824E+003
  0.41015719E-002 -0.19012795E+004  0.48051611E+003  0.43567896E+003
  0.41015719E-002 -0.18993830E+004  0.47861473E+003  0.43394555E+003
  0.41015719E-002 -0.18991066E+004  0.47909857E+003  0.43457391E+003
  0.41015719E-002 -0.18993278E+004  0.47961995E+003  0.43594655E+003
  0.41015719E-002 -0.19000072E+004  0.48020656E+003  0.43534395E+003
  0.41015719E-002 -0.19007519E+004  0.47866213E+003  0.43458856E+003
  0.41015719E-002 -0.18994022E+004  0.47810586E+003  0.43338154E+003
  0.41015719E-002 -0.19004126E+004  0.48080728E+003  0.43654313E+003
  0.41015719E-002 -0.19010878E+004  0.47919246E+003  0.43422969E+003
  0.41015719E-002 -0.18993699E+004  0.48131621E+003  0.43727062E+003
  0.41015719E-002 -0.18989418E+004  0.47962189E+003  0.43538936E+003
  0.41015719E-002 -0.18996716E+004  0.47985922E+003  0.43552167E+003
  0.41015719E-002 -0.18996635E+004  0.47975208E+003  0.43562487E+003
  0.41015719E-002 -0.18996668E+004  0.47758540E+003  0.43312055E+003
  0.41015719E-002 -0.18998245E+004  0.48070770E+003  0.43634407E+003
  0.41015719E-002 -0.18991316E+004  0.47863846E+003  0.43379516E+003
  0.41015719E-002 -0.19000560E+004  0.47866473E+003  0.43423507E+003
  0.41015719E-002 -0.19007252E+004  0.48034967E+003  0.43556463E+003
  0.41015719E-002 -0.19004659E+004  0.48005856E+003  0.43572472E+003
  0.41015719E-002 -0.18998414E+004  0.47969075E+003  0.43613610E+003
  0.41015719E-002 -0.19003237E+004  0.48023391E+003  0.43547699E+003
  0.41015719E-002 -0.18988114E+004  0.47853213E+003  0.43534806E+003
  0.41015719E-002 -0.18998231E+004  0.47760320E+003  0.43318140E+003
  0.41015719E-002 -0.19007328E+004  0.47869900E+003  0.43454221E+003
  0.41015719E-002 -0.18997670E+004  0.47922824E+003  0.43477825E+003
  0.41015719E-002 -0.18996231E+004  0.47786659E+003  0.43373047E+003
  0.41015719E-002 -0.18988083E+004  0.47825703E+003  0.43436865E+003
  0.41015719E-002 -0.18994831E+004  0.48052416E+003  0.43671623E+003
  0.41015719E-002 -0.19003718E+004  0.47813589E+003  0.43383944E+003
  0.41015719E-002 -0.18996122E+004  0.47843167E+003  0.43460014E+003
  0.41015719E-002 -0.18999826E+004  0.48179538E+003  0.43710011E+003
  0.41015719E-002 -0.18991283E+004  0.47771495E+003  0.43398758E+003
  0.41015719E-002 -0.18995216E+004  0.47818858E+003  0.43479643E+003
  0.41015719E-002 -0.19001374E+004  0.48083864E+003  0.43637161E+003
  0.41015719E-002 -0.18997395E+004  0.47803120E+003  0.43362543E+003
  0.41015719E-002 -0.19008027E+004  0.47931823E+003  0.43521198E+003
  0.41015719E-002 -0.19009180E+004  0.47890478E+003  0.43443058E+003
  0.41015719E-002 -0.18995143E+004  0.47765226E+003  0.43297764E+003
  0.41015719E-002 -0.19002504E+004  0.47843688E+003  0.43347928E+003
  0.41015719E-002 -0.19009294E+004  0.47861254E+003  0.43364626E+003
  0.41015719E-002 -0.19008996E+004  0.47959260E+003  0.43498694E+003
  0.41015719E-002 -0.18995306E+004  0.47882584E+003  0.43541852E+003
  0.41015719E-002 -0.19001454E+004  0.47812811E+003  0.43373331E+003
  0.41015719E-002 -0.18996728E+004  0.47931583E+003  0.43464316E+003
  0.41015719E-002 -0.18996995E+004  0.47766626E+003  0.43305679E+003
  0.41015719E-002 -0.19004248E+004  0.48074420E+003  0.43661275E+003
  0.41015719E-002 -0.19006305E+004  0.47880378E+003  0.43438622E+003
  0.41015719E-002 -0.18993644E+004  0.47767193E+003  0.43414910E+003
  0.41015719E-002 -0.18996225E+004  0.47989965E+003  0.43545629E+003
  0.41015719E-002 -0.19006919E+004  0.48010759E+003  0.43579022E+003
  0.41015719E-002 -0.18998780E+004  0.47849657E+003  0.43431281E+003
  0.41015719E-002 -0.18988867E+004  0.47783356E+003  0.43482966E+003
  0.41015719E-002 -0.18994926E+004  0.47841328E+003  0.43455814E+003
  0.41015719E-002 -0.18989999E+004  0.47775124E+003  0.43388695E+003
  0.41015719E-002 -0.18991217E+004  0.47786017E+003  0.43348457E+003
  0.41015719E-002 -0.19001467E+004  0.48080712E+003  0.43640803E+003
  0.41015719E-002 -0.18996715E+004  0.47915089E+003  0.43480723E+003
  0.41015719E-002 -0.19009709E+004  0.47903085E+003  0.43433171E+003
  0.41015719E-002 -0.19004170E+004  0.47883162E+003  0.43425086E+003
  0.41015719E-002 -0.19001467E+004  0.47915443E+003  0.43504395E+003
  0.41015719E-002 -0.18992958E+004  0.47794798E+003  0.43492205E+003
  0.41015719E-002 -0.19000935E+004  0.47947462E+003  0.43469728E+003
  0.41015719E-002 -0.19011986E+004  0.47915000E+003  0.43432783E+003
  0.41015719E-002 -0.19009871E+004  0.47934788E+003  0.43527560E+003
  0.41015719E-002 -0.18993766E+004  0.47815020E+003  0.43332458E+003
  0.41015719E-002 -0.18999773E+004  0.47817279E+003  0.43360434E+003
  0.41015719E-002 -0.18992105E+004  0.47780516E+003  0.43393937E+003
  0.41015719E-002 -0.18993549E+004  0.48046644E+003  0.43670898E+003
  0.41015719E-002 -0.18999757E+004  0.47906787E+003  0.43540201E+003
  0.41015719E-002 -0.18989816E+004  0.47768253E+003  0.43359065E+003
  0.41015719E-002 -0.18992196E+004  0.47941031E+003  0.43610152E+003
  0.41015719E-002 -0.18994778E+004  0.47821021E+003  0.43475282E+003
  0.41015719E-002 -0.18998341E+004  0.47788799E+003  0.43381535E+003
  0.41015719E-002 -0.18989152E+004  0.47860121E+003  0.43372316E+003
  0.41015719E-002 -0.18990969E+004  0.47823458E+003  0.43453648E+003
  0.41015719E-002 -0.18988060E+004  0.47783826E+003  0.43334756E+003
  0.41015719E-002 -0.18989119E+004  0.48057131E+003  0.43601690E+003
  0.41015719E-002 -0.18996636E+004  0.47751308E+003  0.43319070E+003
  0.41015719E-002 -0.18994699E+004  0.47903371E+003  0.43518040E+003
  0.41015719E-002 -0.19000109E+004  0.47854931E+003  0.43468409E+003
  0.41015719E-002 -0.18989255E+004  0.47843672E+003  0.43389218E+003
  0.41015719E-002 -0.19000938E+004  0.48015034E+003  0.43544414E+003
  0.41015719E-002 -0.18990006E+004  0.47731787E+003  0.43431768E+003
  0.41015719E-002 -0.18993914E+004  0.47809895E+003  0.43481998E+003
  0.41015719E-002 -0.18997620E+004  0.48012139E+003  0.43530488E+003
  0.41015719E-002 -0.18996372E+004  0.47926341E+003  0.43467754E+003
  0.41015719E-002 -0.18999771E+004  0.47944206E+003  0.43467095E+003
  0.41015719E-002 -0.18996140E+004  0.47969120E+003  0.43566077E+003
  0.41015719E-002 -0.18995129E+004  0.47808291E+003  0.43346000E+003
  0.41015719E-002 -0.19003729E+004  0.47834385E+003  0.43363335E+003
  0.41015719E-002 -0.19005457E+004  0.47933942E+003  0.43506090E+003
  0.41015719E-002 -0.18991728E+004  0.47796365E+003  0.43484443E+003
  0.41015719E-002 -0.18991622E+004  0.47782482E+003  0.43354007E+003
  0.41015719E-002 -0.19011444E+004  0.48053250E+003  0.43559402E+003
  0.41015719E-002 -0.19005847E+004  0.48100678E+003  0.43643021E+003
  0.41015719E-002 -0.19009810E+004  0.47863656E+003  0.43364835E+003
  0.41015719E-002 -0.18991629E+004  0.47872703E+003  0.43533124E+003
  0.41015719E-002 -0.19013305E+004  0.47964475E+003  0.43515271E+003
  0.41015719E-002 -0.19004209E+004  0.48104593E+003  0.43630752E+003
  0.41015719E-002 -0.18990767E+004  0.47787295E+003  0.43344923E+003
  0.41015719E-002 -0.18999794E+004  0.47905404E+003  0.43541767E+003
  0.41015719E-002 -0.19007289E+004  0.47999708E+003  0.43591965E+003
  0.41015719E-002 -0.18990370E+004  0.47750860E+003  0.43288050E+003
  0.41015719E-002 -0.18990561E+004  0.47813110E+003  0.43318233E+003
  0.41015719E-002 -0.18990244E+004  0.47910286E+003  0.43452810E+003
  0.41015719E-002 -0.18994728E+004  0.47914535E+003  0.43471231E+003
  0.41015719E-002 -0.18990386E+004  0.47757794E+003  0.43407854E+003
  0.41015719E-002 -0.19001581E+004  0.47926860E+003  0.43493565E+003
  0.41015719E-002 -0.19008191E+004  0.48034691E+003  0.43561500E+003
  0.41015719E-002 -0.18995973E+004  0.47999286E+003  0.43535016E+003
  0.41015719E-002 -0.19005261E+004  0.47869553E+003  0.43444145E+003
  0.41015719E-002 -0.18988118E+004  0.47967053E+003  0.43527473E+003
  0.41015719E-002 -0.19005801E+004  0.48009044E+003  0.43575070E+003
  0.41015719E-002 -0.19007522E+004  0.48014086E+003  0.43578745E+003
  0.41015719E-002 -0.19000884E+004  0.47876707E+003  0.43414946E+003
  0.41015719E-002 -0.18991439E+004  0.47968457E+003  0.43578864E+003
  0.41015719E-002 -0.19013739E+004  0.47926394E+003  0.43430273E+003
  0.41015719E-002 -0.19012683E+004  0.47975019E+003  0.43501598E+003
  0.41015719E-002 -0.19006110E+004  0.48025347E+003  0.43560307E+003
  0.41015719E-002 -0.18998306E+004  0.48165408E+003  0.43716506E+003
  0.41015719E-002 -0.19003884E+004  0.48096494E+003  0.43637238E+003
  0.41015719E-002 -0.19000544E+004  0.47781754E+003  0.43308491E+003
  0.41015719E-002 -0.19005932E+004  0.47881480E+003  0.43435644E+003
  0.41015719E-002 -0.18997905E+004  0.47766944E+003  0.43309931E+003
  0.41015719E-002 -0.18992907E+004  0.47929247E+003  0.43447336E+003
  0.41015719E-002 -0.19009548E+004  0.48128400E+003  0.43633986E+003
  0.41015719E-002 -0.18996789E+004  0.47973644E+003  0.43564834E+003
  0.41015719E-002 -0.18991356E+004  0.47771000E+003  0.43399620E+003
  0.41015719E-002 -0.18990816E+004  0.47987844E+003  0.43520326E+003
  0.41015719E-002 -0.19007188E+004  0.47951635E+003  0.43497169E+003
